{"learner":{"attributes":{"scikit_learn":"{\"_estimator_type\": \"regressor\"}"},"feature_names":[],"feature_types":[],"gradient_booster":{"model":{"gbtree_model_param":{"num_parallel_tree":"1","num_trees":"300"},"iteration_indptr":[0,1,2,3,4,5,6,7,8,9,10,11,12,13,14,15,16,17,18,19,20,21,22,23,24,25,26,27,28,29,30,31,32,33,34,35,36,37,38,39,40,41,42,43,44,45,46,47,48,49,50,51,52,53,54,55,56,57,58,59,60,61,62,63,64,65,66,67,68,69,70,71,72,73,74,75,76,77,78,79,80,81,82,83,84,85,86,87,88,89,90,91,92,93,94,95,96,97,98,99,100,101,102,103,104,105,106,107,108,109,110,111,112,113,114,115,116,117,118,119,120,121,122,123,124,125,126,127,128,129,130,131,132,133,134,135,136,137,138,139,140,141,142,143,144,145,146,147,148,149,150,151,152,153,154,155,156,157,158,159,160,161,162,163,164,165,166,167,168,169,170,171,172,173,174,175,176,177,178,179,180,181,182,183,184,185,186,187,188,189,190,191,192,193,194,195,196,197,198,199,200,201,202,203,204,205,206,207,208,209,210,211,212,213,214,215,216,217,218,219,220,221,222,223,224,225,226,227,228,229,230,231,232,233,234,235,236,237,238,239,240,241,242,243,244,245,246,247,248,249,250,251,252,253,254,255,256,257,258,259,260,261,262,263,264,265,266,267,268,269,270,271,272,273,274,275,276,277,278,279,280,281,282,283,284,285,286,287,288,289,290,291,292,293,294,295,296,297,298,299,300],"tree_info":[0,0,0,0,0,0,0,0,0,0,0,0,0,0,0,0,0,0,0,0,0,0,0,0,0,0,0,0,0,0,0,0,0,0,0,0,0,0,0,0,0,0,0,0,0,0,0,0,0,0,0,0,0,0,0,0,0,0,0,0,0,0,0,0,0,0,0,0,0,0,0,0,0,0,0,0,0,0,0,0,0,0,0,0,0,0,0,0,0,0,0,0,0,0,0,0,0,0,0,0,0,0,0,0,0,0,0,0,0,0,0,0,0,0,0,0,0,0,0,0,0,0,0,0,0,0,0,0,0,0,0,0,0,0,0,0,0,0,0,0,0,0,0,0,0,0,0,0,0,0,0,0,0,0,0,0,0,0,0,0,0,0,0,0,0,0,0,0,0,0,0,0,0,0,0,0,0,0,0,0,0,0,0,0,0,0,0,0,0,0,0,0,0,0,0,0,0,0,0,0,0,0,0,0,0,0,0,0,0,0,0,0,0,0,0,0,0,0,0,0,0,0,0,0,0,0,0,0,0,0,0,0,0,0,0,0,0,0,0,0,0,0,0,0,0,0,0,0,0,0,0,0,0,0,0,0,0,0,0,0,0,0,0,0,0,0,0,0,0,0,0,0,0,0,0,0,0,0,0,0,0,0,0,0,0,0,0,0,0,0,0,0,0,0,0,0,0,0,0,0],"trees":[{"base_weights":[-4.810813E0,-4.3802395E0,-9.855118E0,-3.6983078E0,-5.449476E0,-8.31E0,-1.1662021E1,-3.3310583E0,-4.4194703E0,-5.9110026E0,-4.8407454E0,-8.745848E0,-6.4121585E0,-1.2187148E1,-8.729655E0,-3.7085683E0,-3.0812466E0,-5.1063943E0,-4.1827292E0,-3.6612124E0,-6.0984626E0,-3.047028E0,-4.909556E0,-8.661527E0,-5.8528227E-1,-4.1655883E-1,-6.271375E0,-1.1584104E1,-1.3495868E1,-3.098148E-1,-4.4498292E-1,-2.0231858E-1,-1.7172776E-1,-1.6714458E-1,-1.4078E-1,-2.3999773E-1,-2.724122E-1,-2.0544295E-1,-2.6554352E-1,-1.6161998E-1,-2.1874812E-1,-2.8765222E-1,-3.264589E-1,-1.342441E-1,-1.8457536E-1,-2.3739985E-1,-2.7616715E-1,-4.1807204E-1,-4.7062522E-1,-3.223285E-1,-2.7252606E-1,-4.3791112E-1,-5.8823586E-1,-4.0723687E-1,-6.8175834E-1],"categories":[],"categories_nodes":[],"categories_segments":[],"categories_sizes":[],"default_left":[0,0,0,0,0,0,0,0,0,0,0,0,0,0,0,0,0,0,0,0,0,0,0,0,0,0,0,0,0,0,0,0,0,0,0,0,0,0,0,0,0,0,0,0,0,0,0,0,0,0,0,0,0,0,0],"id":0,"left_children":[1,3,5,7,9,11,13,15,17,19,21,23,25,27,29,31,33,35,37,39,41,43,45,47,-1,-1,49,51,53,-1,-1,-1,-1,-1,-1,-1,-1,-1,-1,-1,-1,-1,-1,-1,-1,-1,-1,-1,-1,-1,-1,-1,-1,-1,-1],"loss_changes":[1.4745362E5,4.560325E4,1.481175E4,1.0104594E4,6.8163125E3,2.3278281E3,3.680125E3,2.376375E3,2.0746875E3,5.820125E3,1.2825E3,4.8285938E2,9.418164E1,1.487625E3,1.0721875E2,9.189531E2,1.0500625E3,3.194375E2,7.774531E2,3.1273535E2,1.8647188E3,8.134619E1,9.774844E2,4.3510938E2,0E0,0E0,3.8060547E1,6.2834375E2,3.7420312E2,0E0,0E0,0E0,0E0,0E0,0E0,0E0,0E0,0E0,0E0,0E0,0E0,0E0,0E0,0E0,0E0,0E0,0E0,0E0,0E0,0E0,0E0,0E0,0E0,0E0,0E0],"parents":[2147483647,0,0,1,1,2,2,3,3,4,4,5,5,6,6,7,7,8,8,9,9,10,10,11,11,12,12,13,13,14,14,15,15,16,16,17,17,18,18,19,19,20,20,21,21,22,22,23,23,26,26,27,27,28,28],"right_children":[2,4,6,8,10,12,14,16,18,20,22,24,26,28,30,32,34,36,38,40,42,44,46,48,-1,-1,50,52,54,-1,-1,-1,-1,-1,-1,-1,-1,-1,-1,-1,-1,-1,-1,-1,-1,-1,-1,-1,-1,-1,-1,-1,-1,-1,-1],"split_conditions":[1.9369447E2,2.73943E2,2.7210892E2,-2.757543E2,9.506999E-1,7.6524645E-1,7.6524645E-1,4.1133948E-3,7.84745E-1,5.0319365E6,4.36715E6,1.9593968E7,-3.412735E5,7.9571606E2,4.527364E6,9.506999E-1,9.5796E-1,6.161141E6,1.8369042E7,-4.474631E2,2.798552E2,-8.10526E5,2.8142053E2,2.566281E-1,-5.8528227E-1,-4.1655883E-1,3.686945E2,4.527364E6,4.440564E6,-3.098148E-1,-4.4498292E-1,-2.0231858E-1,-1.7172776E-1,-1.6714458E-1,-1.4078E-1,-2.3999773E-1,-2.724122E-1,-2.0544295E-1,-2.6554352E-1,-1.6161998E-1,-2.1874812E-1,-2.8765222E-1,-3.264589E-1,-1.342441E-1,-1.8457536E-1,-2.3739985E-1,-2.7616715E-1,-4.1807204E-1,-4.7062522E-1,-3.223285E-1,-2.7252606E-1,-4.3791112E-1,-5.8823586E-1,-4.0723687E-1,-6.8175834E-1],"split_indices":[0,4,4,0,3,3,3,10,8,7,7,7,6,0,7,3,3,7,7,0,4,6,4,2,0,0,0,7,7,0,0,0,0,0,0,0,0,0,0,0,0,0,0,0,0,0,0,0,0,0,0,0,0,0,0],"split_type":[0,0,0,0,0,0,0,0,0,0,0,0,0,0,0,0,0,0,0,0,0,0,0,0,0,0,0,0,0,0,0,0,0,0,0,0,0,0,0,0,0,0,0,0,0,0,0,0,0,0,0,0,0,0,0],"sum_hessian":[6.7909E4,6.257E4,5.339E3,3.8207E4,2.4363E4,2.881E3,2.458E3,2.5319E4,1.2888E4,1.3852E4,1.0511E4,2.34E3,5.41E2,2.082E3,3.76E2,1.0077E4,1.5242E4,3.298E3,9.59E3,1.067E3,1.2785E4,3.9E2,1.0121E4,2.279E3,6.1E1,3.3E1,5.08E2,1.432E3,6.5E2,2.6E1,3.5E2,4.507E3,5.57E3,7.673E3,7.569E3,1.747E3,1.551E3,9.005E3,5.85E2,6.7E2,3.97E2,7.103E3,5.682E3,2.53E2,1.37E2,8.019E3,2.102E3,1.637E3,6.42E2,4.13E2,9.5E1,8.9E1,1.343E3,1.8E1,6.32E2],"tree_param":{"num_deleted":"0","num_feature":"11","num_nodes":"55","size_leaf_vector":"1"}},{"base_weights":[-2.6576684E0,-1.9051265E0,-3.7055497E0,-1.6717982E0,-3.9335325E0,-3.3868766E0,-7.7276497E0,-1.3138962E0,-1.9754874E0,-6.4662504E0,-3.6924634E0,-1.5215602E0,-3.5355186E0,-7.020677E0,-8.861888E0,-1.5438534E0,-9.0204203E-1,-2.414598E0,-1.7217625E0,-7.4275265E0,-4.6083565E0,-4.078126E0,-2.948187E0,-1.2276531E0,-2.1918387E0,-3.8958135E0,-3.0320837E0,-7.423351E0,-5.577501E0,-8.5317745E0,-4.766357E-1,-8.348862E-2,-6.150796E-2,-3.7584815E-2,-6.366712E-2,-1.1391155E-1,-1.5350603E-1,-9.8214805E-2,-7.4828275E-2,-1.8777932E-1,-3.7883422E-1,-1.4519456E-1,-2.3832308E-1,-1.9236457E-1,-2.3177052E-1,-1.4286421E-1,-2.2136699E-1,-5.459047E-2,-1.0003942E-1,-1.0033061E-1,-1.5199517E-1,-1.7971207E-1,-2.1345475E-1,-1.4285652E-1,-1.9207262E-1,-2.4526358E-1,-3.7400064E-1,-1.7761086E-1,-2.8115845E-1,-1.8075222E-1,-4.2807776E-1],"categories":[],"categories_nodes":[],"categories_segments":[],"categories_sizes":[],"default_left":[0,0,0,0,0,0,0,0,0,0,0,0,0,0,0,0,0,0,0,0,0,0,0,0,0,0,0,0,0,0,0,0,0,0,0,0,0,0,0,0,0,0,0,0,0,0,0,0,0,0,0,0,0,0,0,0,0,0,0,0,0],"id":1,"left_children":[1,3,5,7,9,11,13,15,17,19,21,23,25,27,29,31,33,35,37,39,41,43,45,47,49,51,53,55,57,59,-1,-1,-1,-1,-1,-1,-1,-1,-1,-1,-1,-1,-1,-1,-1,-1,-1,-1,-1,-1,-1,-1,-1,-1,-1,-1,-1,-1,-1,-1,-1],"loss_changes":[5.354503E4,1.8700922E4,3.6354625E4,3.8506016E3,2.465375E3,7.2872188E3,1.6080859E3,1.5400879E3,2.1323047E3,5.962119E2,1.0572031E3,3.800796E2,4.40675E3,7.0709375E2,9.494141E1,4.1044727E2,3.247163E2,6.2053125E2,6.610508E2,9.806348E1,1.930542E1,2.9746484E2,1.5878516E2,1.3991504E2,8.673682E1,1.5826094E3,1.4285469E3,1.0655469E2,6.3847656E0,4.8558594E1,0E0,0E0,0E0,0E0,0E0,0E0,0E0,0E0,0E0,0E0,0E0,0E0,0E0,0E0,0E0,0E0,0E0,0E0,0E0,0E0,0E0,0E0,0E0,0E0,0E0,0E0,0E0,0E0,0E0,0E0,0E0],"parents":[2147483647,0,0,1,1,2,2,3,3,4,4,5,5,6,6,7,7,8,8,9,9,10,10,11,11,12,12,13,13,14,14,15,15,16,16,17,17,18,18,19,19,20,20,21,21,22,22,23,23,24,24,25,25,26,26,27,27,28,28,29,29],"right_children":[2,4,6,8,10,12,14,16,18,20,22,24,26,28,30,32,34,36,38,40,42,44,46,48,50,52,54,56,58,60,-1,-1,-1,-1,-1,-1,-1,-1,-1,-1,-1,-1,-1,-1,-1,-1,-1,-1,-1,-1,-1,-1,-1,-1,-1,-1,-1,-1,-1,-1,-1],"split_conditions":[2.7334024E2,4.615871E1,3.227161E2,-3.797895E2,-2.112515E5,5.0319365E6,7.5271606E2,7.267112E-3,8.069912E-1,7.030511E-1,7.6524645E-1,-4.42404E2,5.7479185E-1,7.6524645E-1,8.8571606E2,8.131629E-1,3.3836045E0,1.7518892E7,3.9834436E-3,2.6967133E2,2.6919534E2,2.566281E-1,9.369922E-1,2.7705017E2,-2.412839E2,-4.42404E2,-1.747895E2,3.272422E6,7.76017E-1,4.36715E6,-4.766357E-1,-8.348862E-2,-6.150796E-2,-3.7584815E-2,-6.366712E-2,-1.1391155E-1,-1.5350603E-1,-9.8214805E-2,-7.4828275E-2,-1.8777932E-1,-3.7883422E-1,-1.4519456E-1,-2.3832308E-1,-1.9236457E-1,-2.3177052E-1,-1.4286421E-1,-2.2136699E-1,-5.459047E-2,-1.0003942E-1,-1.0033061E-1,-1.5199517E-1,-1.7971207E-1,-2.1345475E-1,-1.4285652E-1,-1.9207262E-1,-2.4526358E-1,-3.7400064E-1,-1.7761086E-1,-2.8115845E-1,-1.8075222E-1,-4.2807776E-1],"split_indices":[4,0,0,0,5,7,0,10,8,3,3,0,8,3,0,8,1,7,10,4,4,2,3,4,0,0,0,7,3,7,0,0,0,0,0,0,0,0,0,0,0,0,0,0,0,0,0,0,0,0,0,0,0,0,0,0,0,0,0,0,0],"split_type":[0,0,0,0,0,0,0,0,0,0,0,0,0,0,0,0,0,0,0,0,0,0,0,0,0,0,0,0,0,0,0,0,0,0,0,0,0,0,0,0,0,0,0,0,0,0,0,0,0,0,0,0,0,0,0,0,0,0,0,0,0],"sum_hessian":[6.7909E4,3.9526E4,2.8383E4,3.545E4,4.076E3,2.6301E4,2.082E3,1.6275E4,1.9175E4,3.52E2,3.724E3,1.942E3,2.4359E4,1.287E3,7.95E2,1.0442E4,5.833E3,7.019E3,1.2156E4,2.3E2,1.22E2,2.45E3,1.274E3,1.352E3,5.9E2,1.4194E4,1.0165E4,1.003E3,2.84E2,5.42E2,2.53E2,7.448E3,2.994E3,4.154E3,1.679E3,5.814E3,1.205E3,5.849E3,6.307E3,1E1,2.2E2,1.2E1,1.1E2,1.738E3,7.12E2,1.203E3,7.1E1,1.152E3,2E2,4.87E2,1.03E2,7.857E3,6.337E3,8.362E3,1.803E3,2.4E1,9.79E2,8E0,2.76E2,4E0,5.38E2],"tree_param":{"num_deleted":"0","num_feature":"11","num_nodes":"61","size_leaf_vector":"1"}},{"base_weights":[-1.4811405E0,-7.7768683E-1,-2.4607038E0,-5.500304E-1,-1.3453306E0,-2.2359715E0,-5.1636896E0,-7.943637E-1,-2.4050654E-1,-2.9750357E0,-1.2143465E0,-5.121151E-1,-2.373839E0,-4.613315E0,-6.1134434E0,-7.226743E-1,-1.561904E0,-8.99073E-1,-1.7855851E-1,-4.8755784E0,-2.2516305E0,-1.5378038E0,-9.4597054E-1,-2.9005602E-1,-9.9192685E-1,-2.8140233E0,-2.0631921E0,-4.8788304E0,-3.6976044E0,-5.6024847E0,-6.4469495E0,-4.15392E-2,-2.6794508E-2,-5.546258E-2,-8.492774E-2,-2.3215836E-2,-6.833476E-2,-1.4956608E-2,4.5807874E-3,-1.5965909E-1,-2.5848997E-1,-1.0037782E-1,-1.3992667E-1,-6.852738E-2,-1.0667761E-1,-4.4121083E-2,-9.980546E-2,-8.193063E-3,-5.02908E-2,-4.1645385E-2,-8.8638045E-2,-1.2644543E-1,-1.5507145E-1,-1.3604979E-1,-9.825202E-2,-1.1542735E-1,-2.4690841E-1,-2.0430683E-1,-1.725295E-1,-2.7359203E-1,-4.042905E-1,-1.7058945E-1,-3.245819E-1],"categories":[],"categories_nodes":[],"categories_segments":[],"categories_sizes":[],"default_left":[0,0,0,0,0,0,0,0,0,0,0,0,0,0,0,0,0,0,0,0,0,0,0,0,0,0,0,0,0,0,0,0,0,0,0,0,0,0,0,0,0,0,0,0,0,0,0,0,0,0,0,0,0,0,0,0,0,0,0,0,0,0,0],"id":2,"left_children":[1,3,5,7,9,11,13,15,17,19,21,23,25,27,29,31,33,35,37,39,41,43,45,47,49,51,53,55,57,59,61,-1,-1,-1,-1,-1,-1,-1,-1,-1,-1,-1,-1,-1,-1,-1,-1,-1,-1,-1,-1,-1,-1,-1,-1,-1,-1,-1,-1,-1,-1,-1,-1],"loss_changes":[4.679336E4,5.107246E3,1.7230266E4,2.1335488E3,2.4115332E3,6.22725E3,1.1102852E3,8.664414E2,5.0767914E2,1.1452812E3,9.077744E2,2.0662573E2,3.3123594E3,3.182168E2,9.952344E1,2.9078076E2,8.137329E1,2.1689825E2,3.7070856E2,9.783594E1,7.594092E1,4.701797E2,3.8043066E2,1.19877335E2,7.476233E1,8.14625E2,9.1340625E2,1.5163672E2,1.6131348E1,6.0222656E1,4.228125E1,0E0,0E0,0E0,0E0,0E0,0E0,0E0,0E0,0E0,0E0,0E0,0E0,0E0,0E0,0E0,0E0,0E0,0E0,0E0,0E0,0E0,0E0,0E0,0E0,0E0,0E0,0E0,0E0,0E0,0E0,0E0,0E0],"parents":[2147483647,0,0,1,1,2,2,3,3,4,4,5,5,6,6,7,7,8,8,9,9,10,10,11,11,12,12,13,13,14,14,15,15,16,16,17,17,18,18,19,19,20,20,21,21,22,22,23,23,24,24,25,25,26,26,27,27,28,28,29,29,30,30],"right_children":[2,4,6,8,10,12,14,16,18,20,22,24,26,28,30,32,34,36,38,40,42,44,46,48,50,52,54,56,58,60,62,-1,-1,-1,-1,-1,-1,-1,-1,-1,-1,-1,-1,-1,-1,-1,-1,-1,-1,-1,-1,-1,-1,-1,-1,-1,-1,-1,-1,-1,-1,-1,-1],"split_conditions":[2.7334024E2,-2.06798E2,1.9369447E2,5.634117E-3,-2.112515E5,5.0319365E6,7.5271606E2,1.770831E7,-1.10820875E5,7.030511E-1,8.5156363E-1,-4.474631E2,-1.487087E6,7.76017E-1,8.1671606E2,3.7651053E-3,1.8693395E-3,-4.474631E2,1.0404585E-2,2.7149707E2,5.1819425E0,4.2152286E0,1.7592308E7,2.7705017E2,-2.412839E2,-4.870508E2,8.802205E-1,3.272422E6,-2.3842335E6,6.976841E-1,3.3467025E-1,-4.15392E-2,-2.6794508E-2,-5.546258E-2,-8.492774E-2,-2.3215836E-2,-6.833476E-2,-1.4956608E-2,4.5807874E-3,-1.5965909E-1,-2.5848997E-1,-1.0037782E-1,-1.3992667E-1,-6.852738E-2,-1.0667761E-1,-4.4121083E-2,-9.980546E-2,-8.193063E-3,-5.02908E-2,-4.1645385E-2,-8.8638045E-2,-1.2644543E-1,-1.5507145E-1,-1.3604979E-1,-9.825202E-2,-1.1542735E-1,-2.4690841E-1,-2.0430683E-1,-1.725295E-1,-2.7359203E-1,-4.042905E-1,-1.7058945E-1,-3.245819E-1],"split_indices":[4,0,0,10,5,7,0,7,5,3,3,0,6,3,0,10,10,0,10,4,0,1,7,4,0,0,3,7,9,3,8,0,0,0,0,0,0,0,0,0,0,0,0,0,0,0,0,0,0,0,0,0,0,0,0,0,0,0,0,0,0,0,0],"split_type":[0,0,0,0,0,0,0,0,0,0,0,0,0,0,0,0,0,0,0,0,0,0,0,0,0,0,0,0,0,0,0,0,0,0,0,0,0,0,0,0,0,0,0,0,0,0,0,0,0,0,0,0,0,0,0,0,0,0,0,0,0,0,0],"sum_hessian":[6.7909E4,3.9526E4,2.8383E4,2.8213E4,1.1313E4,2.6206E4,2.177E3,1.5766E4,1.2447E4,8.4E2,1.0473E4,1.941E3,2.4265E4,1.382E3,7.95E2,1.4421E4,1.345E3,1.069E3,1.1378E4,2.3E2,6.1E2,4.747E3,5.726E3,1.328E3,6.13E2,1.0036E4,1.4229E4,1.068E3,3.14E2,3.21E2,4.74E2,9.132E3,5.289E3,3.14E2,1.031E3,5.55E2,5.14E2,7.867E3,3.511E3,3.6E1,1.94E2,4.25E2,1.85E2,3.709E3,1.038E3,5.401E3,3.25E2,1.13E3,1.98E2,5.11E2,1.02E2,5.043E3,4.993E3,1.844E3,1.2385E4,2.5E1,1.043E3,1.16E2,1.98E2,3.08E2,1.3E1,8E0,4.66E2],"tree_param":{"num_deleted":"0","num_feature":"11","num_nodes":"63","size_leaf_vector":"1"}},{"base_weights":[-8.359655E-1,-1.9972906E-1,-1.7219465E0,-1.3027245E-1,-1.354751E0,-1.5640671E0,-3.7146595E0,-2.4644922E-1,2.6988137E-1,-1.1282215E0,-3.0772636E0,-1.1459821E-2,-1.6878418E0,-3.3599725E0,-4.630185E0,-3.9392683E-1,-1.0942952E-1,5.4083854E-1,3.5758205E-2,-9.443119E-1,-1.3868282E0,-2.3069925E0,-3.4007137E0,1.687096E-1,-4.007829E-1,-1.4922087E0,-2.2972324E0,-2.9031107E0,-3.7057762E0,-4.4509287E0,-5.3378787E0,-2.6512383E-2,-1.4152691E-2,3.316436E-4,-1.6751647E-2,3.3369448E-2,7.458733E-3,3.5753113E-3,-5.6954425E-2,-4.8672475E-2,5.377255E-2,-3.7071798E-2,-7.365819E-2,-1.05792165E-1,-1.6069251E-1,-1.6070627E-1,-2.3346435E-1,1.4213036E-2,-2.4443174E-2,-9.055786E-3,-4.0431183E-2,-8.5475124E-2,-6.3451074E-2,-1.2670603E-1,-9.809072E-2,-1.3660286E-1,-1.9219778E-1,-1.9290498E-1,-1.5532357E-1,-2.4531677E-1,-1.8997756E-1,-2.8160453E-1,-1.8973833E-1],"categories":[],"categories_nodes":[],"categories_segments":[],"categories_sizes":[],"default_left":[0,0,0,0,0,0,0,0,0,0,0,0,0,0,0,0,0,0,0,0,0,0,0,0,0,0,0,0,0,0,0,0,0,0,0,0,0,0,0,0,0,0,0,0,0,0,0,0,0,0,0,0,0,0,0,0,0,0,0,0,0,0,0],"id":3,"left_children":[1,3,5,7,9,11,13,15,17,19,21,23,25,27,29,31,33,35,37,39,41,43,45,47,49,51,53,55,57,59,61,-1,-1,-1,-1,-1,-1,-1,-1,-1,-1,-1,-1,-1,-1,-1,-1,-1,-1,-1,-1,-1,-1,-1,-1,-1,-1,-1,-1,-1,-1,-1,-1],"loss_changes":[3.8280074E4,3.1708337E3,8.924031E3,1.7334397E3,8.7135645E2,5.0545273E3,6.6084375E2,5.838883E2,5.322201E2,9.30022E1,5.693213E1,1.3635762E2,2.9006953E3,2.2700977E2,4.969336E1,2.1019556E2,3.9226587E2,1.9265942E2,1.8915843E2,6.9431885E1,4.4709717E1,7.067566E0,2.7835205E1,1.0112078E2,5.4950928E1,8.922617E2,4.6525E2,9.458838E1,6.588379E1,1.2018652E2,2.947583E1,0E0,0E0,0E0,0E0,0E0,0E0,0E0,0E0,0E0,0E0,0E0,0E0,0E0,0E0,0E0,0E0,0E0,0E0,0E0,0E0,0E0,0E0,0E0,0E0,0E0,0E0,0E0,0E0,0E0,0E0,0E0,0E0],"parents":[2147483647,0,0,1,1,2,2,3,3,4,4,5,5,6,6,7,7,8,8,9,9,10,10,11,11,12,12,13,13,14,14,15,15,16,16,17,17,18,18,19,19,20,20,21,21,22,22,23,23,24,24,25,25,26,26,27,27,28,28,29,29,30,30],"right_children":[2,4,6,8,10,12,14,16,18,20,22,24,26,28,30,32,34,36,38,40,42,44,46,48,50,52,54,56,58,60,62,-1,-1,-1,-1,-1,-1,-1,-1,-1,-1,-1,-1,-1,-1,-1,-1,-1,-1,-1,-1,-1,-1,-1,-1,-1,-1,-1,-1,-1,-1,-1,-1],"split_conditions":[2.7334024E2,1.8036852E7,3.227161E2,8.3549805E-3,1.2787616E2,5.0319365E6,7.9571606E2,3.7651053E-3,-4.30404E2,-2.417895E2,6.5071606E2,-4.474631E2,2.8142053E2,6.5071606E2,6.1854552E-3,2.6266446E2,-2.412839E2,4.2152286E0,2.7308215E2,-2.1430235E6,-4.7649112E5,-2.7656308E6,-2.7656308E6,2.7705017E2,3.813904E6,5.8307195E-1,9.4307524E-1,2.8183197E2,-1.517671E6,4.0245308E-3,-1.590876E6,-2.6512383E-2,-1.4152691E-2,3.316436E-4,-1.6751647E-2,3.3369448E-2,7.458733E-3,3.5753113E-3,-5.6954425E-2,-4.8672475E-2,5.377255E-2,-3.7071798E-2,-7.365819E-2,-1.05792165E-1,-1.6069251E-1,-1.6070627E-1,-2.3346435E-1,1.4213036E-2,-2.4443174E-2,-9.055786E-3,-4.0431183E-2,-8.5475124E-2,-6.3451074E-2,-1.2670603E-1,-9.809072E-2,-1.3660286E-1,-1.9219778E-1,-1.9290498E-1,-1.5532357E-1,-2.4531677E-1,-1.8997756E-1,-2.8160453E-1,-1.8973833E-1],"split_indices":[4,7,0,10,0,7,0,10,0,0,0,0,4,0,10,4,0,1,4,9,5,9,9,4,7,8,3,4,9,10,9,0,0,0,0,0,0,0,0,0,0,0,0,0,0,0,0,0,0,0,0,0,0,0,0,0,0,0,0,0,0,0,0],"split_type":[0,0,0,0,0,0,0,0,0,0,0,0,0,0,0,0,0,0,0,0,0,0,0,0,0,0,0,0,0,0,0,0,0,0,0,0,0,0,0,0,0,0,0,0,0,0,0,0,0,0,0,0,0,0,0,0,0,0,0,0,0,0,0],"sum_hessian":[6.7909E4,3.9526E4,2.8383E4,3.7285E4,2.241E3,2.6301E4,2.082E3,2.8896E4,8.389E3,1.982E3,2.59E2,1.942E3,2.4359E4,1.504E3,5.78E2,1.3916E4,1.498E4,3.888E3,4.501E3,1.161E3,8.21E2,7.9E1,1.8E2,1.328E3,6.14E2,1.8442E4,5.917E3,6.52E2,8.52E2,4.67E2,1.11E2,6.24E3,7.676E3,9.892E3,5.088E3,2.938E3,9.5E2,4.369E3,1.32E2,1.145E3,1.6E1,9.8E1,7.23E2,6.8E1,1.1E1,1.6E2,2E1,1.13E3,1.98E2,4E2,2.14E2,9.341E3,9.101E3,3.464E3,2.453E3,5.55E2,9.7E1,6.75E2,1.77E2,2.71E2,1.96E2,9.1E1,2E1],"tree_param":{"num_deleted":"0","num_feature":"11","num_nodes":"63","size_leaf_vector":"1"}},{"base_weights":[-4.7989818E-1,7.992435E-2,-1.2734497E0,1.4553188E-1,-9.499135E-1,-1.1468784E0,-2.6717029E0,4.026616E-2,5.078925E-1,-7.508319E-1,-2.4026043E0,2.3784298E-1,-1.2571508E0,-2.3539512E0,-3.305401E0,-9.0332754E-2,1.6134553E-1,7.2680813E-1,3.1769067E-1,5.3782746E-2,-8.005116E-1,-2.1998138E0,-4.199852E0,3.920253E-1,-9.958711E-2,-1.0772407E0,-1.8051504E0,-2.5416763E0,-1.7410183E0,-3.089386E0,-3.752847E0,3.2640311E-3,-9.185592E-3,-1.4790505E-2,9.97672E-3,2.15404E-2,4.405403E-2,1.7648874E-2,-3.8524237E-2,-2.495317E-2,7.6654674E-3,-4.1503355E-2,1.8967343E-2,-1.02047004E-1,-1.7755906E-1,-7.170265E-2,-2.178725E-1,2.4846515E-2,-9.675582E-3,5.4799025E-3,-2.358827E-2,-4.861379E-2,-7.161071E-2,-8.7476574E-2,-1.478802E-1,-1.22333124E-1,-1.7211916E-1,-6.304581E-2,-9.392903E-2,-1.2846233E-1,-1.6762678E-1,-1.8241149E-1,-2.8376067E-1],"categories":[],"categories_nodes":[],"categories_segments":[],"categories_sizes":[],"default_left":[0,0,0,0,0,0,0,0,0,0,0,0,0,0,0,0,0,0,0,0,0,0,0,0,0,0,0,0,0,0,0,0,0,0,0,0,0,0,0,0,0,0,0,0,0,0,0,0,0,0,0,0,0,0,0,0,0,0,0,0,0,0,0],"id":4,"left_children":[1,3,5,7,9,11,13,15,17,19,21,23,25,27,29,31,33,35,37,39,41,43,45,47,49,51,53,55,57,59,61,-1,-1,-1,-1,-1,-1,-1,-1,-1,-1,-1,-1,-1,-1,-1,-1,-1,-1,-1,-1,-1,-1,-1,-1,-1,-1,-1,-1,-1,-1,-1,-1],"loss_changes":[3.0168986E4,2.690581E3,4.9684414E3,1.4279438E3,6.879475E2,3.9339102E3,4.6158594E2,4.5874487E2,3.506538E2,8.394641E1,9.536243E1,9.894001E1,2.3505273E3,1.7461328E2,6.340918E1,2.0282164E2,2.6287567E2,1.7848877E2,1.7348624E2,6.8443274E0,6.925549E1,4.8573364E1,5.9559326E0,8.0256775E1,4.6530643E1,6.680176E2,3.7275E2,9.333154E1,2.1935425E1,6.3793457E1,2.9171387E1,0E0,0E0,0E0,0E0,0E0,0E0,0E0,0E0,0E0,0E0,0E0,0E0,0E0,0E0,0E0,0E0,0E0,0E0,0E0,0E0,0E0,0E0,0E0,0E0,0E0,0E0,0E0,0E0,0E0,0E0,0E0,0E0],"parents":[2147483647,0,0,1,1,2,2,3,3,4,4,5,5,6,6,7,7,8,8,9,9,10,10,11,11,12,12,13,13,14,14,15,15,16,16,17,17,18,18,19,19,20,20,21,21,22,22,23,23,24,24,25,25,26,26,27,27,28,28,29,29,30,30],"right_children":[2,4,6,8,10,12,14,16,18,20,22,24,26,28,30,32,34,36,38,40,42,44,46,48,50,52,54,56,58,60,62,-1,-1,-1,-1,-1,-1,-1,-1,-1,-1,-1,-1,-1,-1,-1,-1,-1,-1,-1,-1,-1,-1,-1,-1,-1,-1,-1,-1,-1,-1,-1,-1],"split_conditions":[2.7342908E2,1.8036852E7,8.9181946E1,8.3549805E-3,1.2787616E2,5.0319365E6,7.5271606E2,3.7651053E-3,-4.30404E2,8.5074827E-4,2.731558E2,-4.474631E2,2.8142053E2,7.8640616E-1,8.8571606E2,1.4626419E5,-2.112515E5,2.814592E5,2.7308215E2,9.258325E-1,-2.1430235E6,-2.6574705E6,3.436945E2,2.7705017E2,3.813904E6,4.097577E0,2.860771E2,2.8183197E2,1.9369447E2,2.2477898E-1,1.02371606E3,3.2640311E-3,-9.185592E-3,-1.4790505E-2,9.97672E-3,2.15404E-2,4.405403E-2,1.7648874E-2,-3.8524237E-2,-2.495317E-2,7.6654674E-3,-4.1503355E-2,1.8967343E-2,-1.02047004E-1,-1.7755906E-1,-7.170265E-2,-2.178725E-1,2.4846515E-2,-9.675582E-3,5.4799025E-3,-2.358827E-2,-4.861379E-2,-7.161071E-2,-8.7476574E-2,-1.478802E-1,-1.22333124E-1,-1.7211916E-1,-6.304581E-2,-9.392903E-2,-1.2846233E-1,-1.6762678E-1,-1.8241149E-1,-2.8376067E-1],"split_indices":[4,7,0,10,0,7,0,10,0,10,4,0,4,3,0,5,5,5,4,3,9,9,0,4,7,1,4,4,0,2,0,0,0,0,0,0,0,0,0,0,0,0,0,0,0,0,0,0,0,0,0,0,0,0,0,0,0,0,0,0,0,0,0],"split_type":[0,0,0,0,0,0,0,0,0,0,0,0,0,0,0,0,0,0,0,0,0,0,0,0,0,0,0,0,0,0,0,0,0,0,0,0,0,0,0,0,0,0,0,0,0,0,0,0,0,0,0,0,0,0,0,0,0,0,0,0,0,0,0],"sum_hessian":[6.7909E4,3.9819E4,2.809E4,3.7435E4,2.384E3,2.576E4,2.33E3,2.9009E4,8.426E3,2.098E3,2.86E2,1.9E3,2.386E4,1.555E3,7.75E2,1.3956E4,1.5053E4,3.916E3,4.51E3,1.22E2,1.976E3,2.59E2,2.7E1,1.304E3,5.96E2,1.7965E4,5.895E3,1.188E3,3.67E2,5.28E2,2.47E2,5.234E3,8.722E3,1.16E3,1.3893E4,1.343E3,2.573E3,4.369E3,1.41E2,1.8E1,1.04E2,1.928E3,4.8E1,2.34E2,2.5E1,2E0,2.5E1,1.106E3,1.98E2,3.82E2,2.14E2,1.3868E4,4.097E3,5.626E3,2.69E2,1.078E3,1.1E2,8.4E1,2.83E2,1.81E2,3.47E2,2.37E2,1E1],"tree_param":{"num_deleted":"0","num_feature":"11","num_nodes":"63","size_leaf_vector":"1"}},{"base_weights":[-2.8282866E-1,2.083414E-1,-9.7906977E-1,2.6481542E-1,-6.7818654E-1,3.3412358E-1,-1.0756925E0,1.680423E-1,5.979261E-1,-4.7965765E-1,-1.5670409E0,4.7527155E-1,3.7448015E-2,-9.823746E-1,-2.0867972E0,4.9462207E-2,2.8211194E-1,4.4996727E-1,8.0275494E-1,1.9119221E-1,-5.2450997E-1,-1.4342616E0,-3.4458594E0,5.0882876E-1,-1.0187905E0,-3.056551E-1,2.2203821E-1,-7.41182E-1,-1.3193955E0,-1.6416084E0,-2.3411994E0,9.511502E-3,-2.081717E-3,-7.5048353E-3,1.5855012E-2,2.4296844E-2,-2.2411438E-2,4.7480434E-2,2.003672E-2,-1.6391758E-2,1.4164529E-2,-2.764823E-2,2.6021589E-2,-5.118851E-2,-8.408509E-2,-5.2889507E-2,-1.7944364E-1,2.9035522E-2,5.826065E-3,-2.0773835E-2,-7.415079E-2,-4.6539556E-2,-2.5618486E-3,1.7882966E-2,-1.3889568E-2,-3.302015E-2,-5.1625755E-2,-5.2462887E-2,-7.6916106E-2,-7.575389E-2,-1.1987456E-1,-1.236729E-1,-8.83036E-2],"categories":[],"categories_nodes":[],"categories_segments":[],"categories_sizes":[],"default_left":[0,0,0,0,0,0,0,0,0,0,0,0,0,0,0,0,0,0,0,0,0,0,0,0,0,0,0,0,0,0,0,0,0,0,0,0,0,0,0,0,0,0,0,0,0,0,0,0,0,0,0,0,0,0,0,0,0,0,0,0,0,0,0],"id":5,"left_children":[1,3,5,7,9,11,13,15,17,19,21,23,25,27,29,31,33,35,37,39,41,43,45,47,49,51,53,55,57,59,61,-1,-1,-1,-1,-1,-1,-1,-1,-1,-1,-1,-1,-1,-1,-1,-1,-1,-1,-1,-1,-1,-1,-1,-1,-1,-1,-1,-1,-1,-1,-1,-1],"loss_changes":[2.3223576E4,1.993799E3,3.56467E3,1.2066921E3,4.2011316E2,8.063373E1,2.4668223E3,3.9238672E2,2.550293E2,5.880426E1,1.03576294E2,6.594656E1,3.9461285E1,1.9464102E3,2.464541E2,1.8242166E2,2.2364514E2,1.5836438E2,2.0820166E2,5.972465E0,5.4670105E1,3.9719788E1,5.766449E0,3.594339E1,7.505968E0,3.462432E1,2.755327E1,3.2798877E2,5.8931836E2,7.3551025E1,1.0242822E2,0E0,0E0,0E0,0E0,0E0,0E0,0E0,0E0,0E0,0E0,0E0,0E0,0E0,0E0,0E0,0E0,0E0,0E0,0E0,0E0,0E0,0E0,0E0,0E0,0E0,0E0,0E0,0E0,0E0,0E0,0E0,0E0],"parents":[2147483647,0,0,1,1,2,2,3,3,4,4,5,5,6,6,7,7,8,8,9,9,10,10,11,11,12,12,13,13,14,14,15,15,16,16,17,17,18,18,19,19,20,20,21,21,22,22,23,23,24,24,25,25,26,26,27,27,28,28,29,29,30,30],"right_children":[2,4,6,8,10,12,14,16,18,20,22,24,26,28,30,32,34,36,38,40,42,44,46,48,50,52,54,56,58,60,62,-1,-1,-1,-1,-1,-1,-1,-1,-1,-1,-1,-1,-1,-1,-1,-1,-1,-1,-1,-1,-1,-1,-1,-1,-1,-1,-1,-1,-1,-1,-1,-1],"split_conditions":[2.7342908E2,1.8036852E7,5.0319365E6,8.3549805E-3,-2.1238432E0,-4.474631E2,1.2787616E2,3.8167043E-3,3.256658E5,8.5074827E-4,2.7334024E2,2.7828226E2,1.4000165E-1,2.7955533E2,6.5071606E2,1.5184369E5,-2.2455638E5,2.731558E2,2.3945E0,9.258325E-1,-2.1430235E6,2.6586056E-3,3.436945E2,9.291076E5,1.15798205E-1,-2.4279732E6,-2.777895E2,4.097577E0,9.569976E-2,2.8183197E2,-1.5528095E6,9.511502E-3,-2.081717E-3,-7.5048353E-3,1.5855012E-2,2.4296844E-2,-2.2411438E-2,4.7480434E-2,2.003672E-2,-1.6391758E-2,1.4164529E-2,-2.764823E-2,2.6021589E-2,-5.118851E-2,-8.408509E-2,-5.2889507E-2,-1.7944364E-1,2.9035522E-2,5.826065E-3,-2.0773835E-2,-7.415079E-2,-4.6539556E-2,-2.5618486E-3,1.7882966E-2,-1.3889568E-2,-3.302015E-2,-5.1625755E-2,-5.2462887E-2,-7.6916106E-2,-7.575389E-2,-1.1987456E-1,-1.236729E-1,-8.83036E-2],"split_indices":[4,7,7,10,0,0,0,10,5,10,4,4,2,4,0,5,5,4,1,3,9,10,0,5,8,9,0,1,2,4,9,0,0,0,0,0,0,0,0,0,0,0,0,0,0,0,0,0,0,0,0,0,0,0,0,0,0,0,0,0,0,0,0],"split_type":[0,0,0,0,0,0,0,0,0,0,0,0,0,0,0,0,0,0,0,0,0,0,0,0,0,0,0,0,0,0,0,0,0,0,0,0,0,0,0,0,0,0,0,0,0,0,0,0,0,0,0,0,0,0,0,0,0,0,0,0,0,0,0],"sum_hessian":[6.7909E4,3.9819E4,2.809E4,3.7435E4,2.384E3,1.925E3,2.6165E4,2.9009E4,8.426E3,1.95E3,4.34E2,1.304E3,6.21E2,2.3956E4,2.209E3,1.4224E4,1.4785E4,4.894E3,3.532E3,1.22E2,1.828E3,4.07E2,2.7E1,1.276E3,2.8E1,2.17E2,4.04E2,1.3965E4,9.991E3,8.06E2,1.403E3,5.588E3,8.636E3,1.107E3,1.3678E4,4.706E3,1.88E2,2.586E3,9.46E2,1.8E1,1.04E2,1.78E3,4.8E1,1.55E2,2.52E2,2E0,2.5E1,1.078E3,1.98E2,1.3E1,1.5E1,6.2E1,1.55E2,3.18E2,8.6E1,1.0936E4,3.029E3,4.475E3,5.516E3,6.93E2,1.13E2,1.138E3,2.65E2],"tree_param":{"num_deleted":"0","num_feature":"11","num_nodes":"63","size_leaf_vector":"1"}},{"base_weights":[-1.7252958E-1,2.5552732E-1,-7.793094E-1,3.037085E-1,-5.008527E-1,3.643505E-1,-8.6346096E-1,2.1454428E-1,6.1062074E-1,-3.4486258E-1,-1.1993258E0,4.8833323E-1,8.8201046E-2,-1.3231608E0,-7.356521E-1,5.9860706E-1,1.8278904E-1,5.040073E-1,8.414473E-1,1.7062655E-1,-3.954342E-1,-1.0811907E0,-2.8778899E0,5.1785666E-1,-8.52987E-1,-2.6313293E-1,2.6674327E-1,2.5780898E-2,-1.4765387E0,-5.9090436E-1,-1.1830834E0,-1.565248E-1,3.161486E-2,3.8667265E-3,1.4757352E-2,2.6610732E-2,-1.5022998E-2,4.9161132E-2,2.229697E-2,3.8572785E-2,-5.559114E-3,-2.1130946E-2,2.8593361E-2,-4.8499126E-2,-9.290207E-2,-1.5434183E-1,-6.496837E-2,1.4813582E-2,3.1518098E-2,-1.4489584E-2,-6.462356E-2,-3.9752167E-2,-2.6833504E-3,-3.0817151E-2,1.6514601E-2,4.7899703E-3,-2.9825766E-2,-6.1565887E-2,-8.522136E-2,-2.2251796E-2,-3.724168E-2,-5.6765404E-2,-1.06751285E-1],"categories":[],"categories_nodes":[],"categories_segments":[],"categories_sizes":[],"default_left":[0,0,0,0,0,0,0,0,0,0,0,0,0,0,0,0,0,0,0,0,0,0,0,0,0,0,0,0,0,0,0,0,0,0,0,0,0,0,0,0,0,0,0,0,0,0,0,0,0,0,0,0,0,0,0,0,0,0,0,0,0,0,0],"id":6,"left_children":[1,3,5,7,9,11,13,15,17,19,21,23,25,27,29,31,33,35,37,39,41,43,45,47,49,51,53,55,57,59,61,-1,-1,-1,-1,-1,-1,-1,-1,-1,-1,-1,-1,-1,-1,-1,-1,-1,-1,-1,-1,-1,-1,-1,-1,-1,-1,-1,-1,-1,-1,-1,-1],"loss_changes":[1.763889E4,1.4513232E3,2.7038164E3,1.0243271E3,2.594438E2,6.589885E1,1.536375E3,3.536969E2,2.0695776E2,5.0928314E1,8.3147766E1,5.3070557E1,3.75815E1,1.1774932E3,1.3254229E3,2.8025836E2,3.1747388E2,1.3102405E2,1.4877246E2,2.9716587E1,4.696927E1,3.344574E1,5.224228E0,3.224649E1,6.803402E0,2.246359E1,2.2482828E1,2.5416193E1,2.8346387E2,3.4708984E2,2.2515527E2,0E0,0E0,0E0,0E0,0E0,0E0,0E0,0E0,0E0,0E0,0E0,0E0,0E0,0E0,0E0,0E0,0E0,0E0,0E0,0E0,0E0,0E0,0E0,0E0,0E0,0E0,0E0,0E0,0E0,0E0,0E0,0E0],"parents":[2147483647,0,0,1,1,2,2,3,3,4,4,5,5,6,6,7,7,8,8,9,9,10,10,11,11,12,12,13,13,14,14,15,15,16,16,17,17,18,18,19,19,20,20,21,21,22,22,23,23,24,24,25,25,26,26,27,27,28,28,29,29,30,30],"right_children":[2,4,6,8,10,12,14,16,18,20,22,24,26,28,30,32,34,36,38,40,42,44,46,48,50,52,54,56,58,60,62,-1,-1,-1,-1,-1,-1,-1,-1,-1,-1,-1,-1,-1,-1,-1,-1,-1,-1,-1,-1,-1,-1,-1,-1,-1,-1,-1,-1,-1,-1,-1,-1],"split_conditions":[2.7342908E2,1.8036852E7,5.0319365E6,8.3549805E-3,-2.1238432E0,-4.42404E2,8.7691987E-1,7.3914057E-1,5.939099E5,-4.7649112E5,2.7334024E2,2.7828226E2,1.4000165E-1,-4.527895E2,2.8142053E2,-3.9537412E5,3.9299335E-3,2.731558E2,2.7907982E0,1.913772E-3,-2.1430235E6,-2.6902298E6,3.4248803E0,-2.4753735E6,1.15798205E-1,-2.4279732E6,-1.357902E6,-5.18404E2,2.7804767E2,2.7766278E2,2.860771E2,-1.565248E-1,3.161486E-2,3.8667265E-3,1.4757352E-2,2.6610732E-2,-1.5022998E-2,4.9161132E-2,2.229697E-2,3.8572785E-2,-5.559114E-3,-2.1130946E-2,2.8593361E-2,-4.8499126E-2,-9.290207E-2,-1.5434183E-1,-6.496837E-2,1.4813582E-2,3.1518098E-2,-1.4489584E-2,-6.462356E-2,-3.9752167E-2,-2.6833504E-3,-3.0817151E-2,1.6514601E-2,4.7899703E-3,-2.9825766E-2,-6.1565887E-2,-8.522136E-2,-2.2251796E-2,-3.724168E-2,-5.6765404E-2,-1.06751285E-1],"split_indices":[4,7,7,10,0,0,3,3,5,5,4,4,2,0,4,5,10,4,1,10,9,9,1,9,8,9,6,0,4,4,4,0,0,0,0,0,0,0,0,0,0,0,0,0,0,0,0,0,0,0,0,0,0,0,0,0,0,0,0,0,0,0,0],"split_type":[0,0,0,0,0,0,0,0,0,0,0,0,0,0,0,0,0,0,0,0,0,0,0,0,0,0,0,0,0,0,0,0,0,0,0,0,0,0,0,0,0,0,0,0,0,0,0,0,0,0,0,0,0,0,0,0,0,0,0,0,0,0,0],"sum_hessian":[6.7909E4,3.9819E4,2.809E4,3.7435E4,2.384E3,1.925E3,2.6165E4,2.9009E4,8.426E3,1.95E3,4.34E2,1.328E3,5.97E2,5.69E3,2.0475E4,2.214E3,2.6795E4,5.766E3,2.66E3,1.74E2,1.776E3,4.07E2,2.7E1,1.3E3,2.8E1,2.01E2,3.96E2,5.81E2,5.109E3,1.5472E4,5.003E3,1.9E1,2.195E3,1.3823E4,1.2972E4,5.571E3,1.95E2,1.957E3,7.03E2,5.5E1,1.19E2,1.728E3,4.8E1,3.58E2,4.9E1,2.3E1,4E0,4.39E2,8.61E2,1.3E1,1.5E1,5.6E1,1.45E2,2.6E1,3.7E2,5.23E2,5.8E1,2.464E3,2.645E3,7.946E3,7.526E3,4.766E3,2.37E2],"tree_param":{"num_deleted":"0","num_feature":"11","num_nodes":"63","size_leaf_vector":"1"}},{"base_weights":[-1.0969554E-1,2.6199365E-1,-6.365744E-1,1.1838936E-1,4.6969512E-1,3.6058444E-1,-7.099479E-1,1.6983794E-1,-3.6479363E-1,2.3357926E-3,5.130579E-1,5.0348806E-1,1.6432959E-1,-5.904662E-1,-1.1005456E0,4.0121678E-1,1.21814206E-1,-2.2805096E-1,-9.70571E-1,3.140945E-1,-1.6639145E-1,4.5041734E-1,7.6783746E-1,6.4105046E-1,3.7577607E-2,-2.862627E-1,4.1607022E-1,-5.234973E-1,-1.4755672E0,-7.7576923E-1,-1.2550403E0,-3.5970975E-2,2.0989647E-2,-5.8028974E-2,6.570536E-3,1.2472494E-2,-1.3763432E-2,-4.2900648E-2,-1.3151348E-1,5.4848462E-2,1.0479382E-2,9.716364E-3,-1.720388E-2,2.1600911E-2,4.5945104E-2,2.7231721E-2,4.801935E-2,3.3789467E-2,-3.2626133E-2,8.204179E-3,-3.5610825E-2,-8.914362E-3,-7.161546E-2,3.4429472E-2,-7.783134E-4,-1.9895878E-2,-3.3915285E-2,-7.929913E-2,-4.907581E-2,-3.041144E-2,-5.3575784E-2,-3.4583148E-2,-6.881284E-2],"categories":[],"categories_nodes":[],"categories_segments":[],"categories_sizes":[],"default_left":[0,0,0,0,0,0,0,0,0,0,0,0,0,0,0,0,0,0,0,0,0,0,0,0,0,0,0,0,0,0,0,0,0,0,0,0,0,0,0,0,0,0,0,0,0,0,0,0,0,0,0,0,0,0,0,0,0,0,0,0,0,0,0],"id":7,"left_children":[1,3,5,7,9,11,13,15,17,19,21,23,25,27,29,31,33,35,37,39,41,43,45,47,49,51,53,55,57,59,61,-1,-1,-1,-1,-1,-1,-1,-1,-1,-1,-1,-1,-1,-1,-1,-1,-1,-1,-1,-1,-1,-1,-1,-1,-1,-1,-1,-1,-1,-1,-1,-1],"loss_changes":[1.3299332E4,1.1876484E3,2.0555352E3,5.853441E2,3.298684E2,5.3932938E1,1.220499E3,2.3639648E2,1.8748413E2,7.2801094E1,2.3737134E2,7.1374146E1,9.233963E1,1.1870239E3,3.0650635E2,7.6430115E1,2.1703003E2,4.1779655E1,7.564395E1,3.9532562E1,5.7623928E1,1.0267749E2,1.2574512E2,3.9086945E1,2.4304487E1,3.587815E1,6.141317E1,3.6193164E2,7.530542E1,9.7357056E1,2.8252246E2,0E0,0E0,0E0,0E0,0E0,0E0,0E0,0E0,0E0,0E0,0E0,0E0,0E0,0E0,0E0,0E0,0E0,0E0,0E0,0E0,0E0,0E0,0E0,0E0,0E0,0E0,0E0,0E0,0E0,0E0,0E0,0E0],"parents":[2147483647,0,0,1,1,2,2,3,3,4,4,5,5,6,6,7,7,8,8,9,9,10,10,11,11,12,12,13,13,14,14,15,15,16,16,17,17,18,18,19,19,20,20,21,21,22,22,23,23,24,24,25,25,26,26,27,27,28,28,29,29,30,30],"right_children":[2,4,6,8,10,12,14,16,18,20,22,24,26,28,30,32,34,36,38,40,42,44,46,48,50,52,54,56,58,60,62,-1,-1,-1,-1,-1,-1,-1,-1,-1,-1,-1,-1,-1,-1,-1,-1,-1,-1,-1,-1,-1,-1,-1,-1,-1,-1,-1,-1,-1,-1,-1,-1],"split_conditions":[2.7342908E2,5.514198E-3,5.0319365E6,1.8036852E7,-1.10820875E5,-9.09329E5,2.8142053E2,8.491569E-1,-2.1238432E0,-4.96737E2,1.1516819E-2,2.7705017E2,-2.121977E6,5.8771606E2,-5.56404E2,-4.4215588E5,8.495035E-1,-4.7649112E5,2.7334024E2,-3.3624332E6,9.044369E-1,6.0962076E0,2.8746788E5,1.5771852E6,2.7828226E2,2.7647928E2,5.2270925E-1,2.779482E2,-1.517671E6,2.834125E2,5.16777E-2,-3.5970975E-2,2.0989647E-2,-5.8028974E-2,6.570536E-3,1.2472494E-2,-1.3763432E-2,-4.2900648E-2,-1.3151348E-1,5.4848462E-2,1.0479382E-2,9.716364E-3,-1.720388E-2,2.1600911E-2,4.5945104E-2,2.7231721E-2,4.801935E-2,3.3789467E-2,-3.2626133E-2,8.204179E-3,-3.5610825E-2,-8.914362E-3,-7.161546E-2,3.4429472E-2,-7.783134E-4,-1.9895878E-2,-3.3915285E-2,-7.929913E-2,-4.907581E-2,-3.041144E-2,-5.3575784E-2,-3.4583148E-2,-6.881284E-2],"split_indices":[4,10,7,7,5,6,4,3,0,0,10,4,9,0,0,5,3,5,4,9,3,1,5,5,4,4,8,4,9,4,2,0,0,0,0,0,0,0,0,0,0,0,0,0,0,0,0,0,0,0,0,0,0,0,0,0,0,0,0,0,0,0,0],"split_type":[0,0,0,0,0,0,0,0,0,0,0,0,0,0,0,0,0,0,0,0,0,0,0,0,0,0,0,0,0,0,0,0,0,0,0,0,0,0,0,0,0,0,0,0,0,0,0,0,0,0,0,0,0,0,0,0,0,0,0,0,0,0,0],"sum_hessian":[6.7909E4,3.9819E4,2.809E4,2.3543E4,1.6276E4,1.925E3,2.6165E4,2.1278E4,2.265E3,1.382E3,1.4894E4,1.113E3,8.12E2,2.0038E4,6.127E3,3.656E3,1.7622E4,1.849E3,4.16E2,4.85E2,8.97E2,1.1957E4,2.937E3,8.59E2,2.54E2,2.91E2,5.21E2,1.863E4,1.408E3,1.977E3,4.15E3,5.9E1,3.597E3,1.3E2,1.7492E4,1.66E2,1.683E3,3.91E2,2.5E1,5.6E1,4.29E2,2.96E2,6.01E2,1.1507E4,4.5E2,1.362E3,1.575E3,8.37E2,2.2E1,2.18E2,3.6E1,2.67E2,2.4E1,3.19E2,2.02E2,1.0288E4,8.342E3,1.149E3,2.59E2,1.264E3,7.13E2,7.36E2,3.414E3],"tree_param":{"num_deleted":"0","num_feature":"11","num_nodes":"63","size_leaf_vector":"1"}},{"base_weights":[-7.3258296E-2,2.487969E-1,-5.297805E-1,1.1990442E-1,4.352192E-1,-2.7726924E-1,-7.62494E-1,1.6176374E-1,-2.732308E-1,3.7311596E-1,7.02263E-1,3.6339545E-1,-3.8035226E-1,-6.8583894E-1,-1.211841E0,5.2610755E-1,1.3157274E-1,-1.5761393E-1,-7.85504E-1,-3.2771107E-2,4.1554707E-1,5.0945157E-1,8.8471913E-1,5.2327895E-1,1.5527694E-1,-3.0167532E-1,-9.9222106E-1,-9.5622253E-1,-5.677179E-1,-1.1162916E0,-1.8492929E0,-1.6498728E-1,2.7233222E-2,1.1365443E-2,3.0307805E-3,1.4316331E-2,-1.0077267E-2,-3.4313258E-2,-1.12575464E-1,3.4575354E-2,-4.746568E-3,1.8069698E-2,2.7129075E-2,-2.1650968E-2,2.7526528E-2,-1.5587746E-2,4.5014918E-2,3.0826196E-2,9.19231E-3,-1.2499315E-2,1.9083923E-2,-7.754955E-3,-2.1705797E-2,-7.379275E-3,-5.413223E-2,-1.16840135E-2,-5.368305E-2,-3.0144466E-2,-1.0602493E-2,-5.2449163E-2,-9.571515E-2,-1.0356685E-1,-4.9875762E-2],"categories":[],"categories_nodes":[],"categories_segments":[],"categories_sizes":[],"default_left":[0,0,0,0,0,0,0,0,0,0,0,0,0,0,0,0,0,0,0,0,0,0,0,0,0,0,0,0,0,0,0,0,0,0,0,0,0,0,0,0,0,0,0,0,0,0,0,0,0,0,0,0,0,0,0,0,0,0,0,0,0,0,0],"id":8,"left_children":[1,3,5,7,9,11,13,15,17,19,21,23,25,27,29,31,33,35,37,39,41,43,45,47,49,51,53,55,57,59,61,-1,-1,-1,-1,-1,-1,-1,-1,-1,-1,-1,-1,-1,-1,-1,-1,-1,-1,-1,-1,-1,-1,-1,-1,-1,-1,-1,-1,-1,-1,-1,-1],"loss_changes":[9.984622E3,9.5675977E2,1.6504941E3,3.8749307E2,2.696809E2,8.899834E2,5.0268262E2,2.3399774E2,1.3408551E2,2.2748499E2,1.0755066E2,6.2075897E1,5.5846094E2,3.983623E2,1.2760913E2,1.1737866E2,1.3348535E2,3.613812E1,5.912198E1,5.6387302E1,8.2066895E1,5.81185E1,2.965747E1,3.330948E1,7.468996E1,1.996112E2,1.0080798E2,3.218557E2,1.0864087E2,9.757544E1,5.0134216E1,0E0,0E0,0E0,0E0,0E0,0E0,0E0,0E0,0E0,0E0,0E0,0E0,0E0,0E0,0E0,0E0,0E0,0E0,0E0,0E0,0E0,0E0,0E0,0E0,0E0,0E0,0E0,0E0,0E0,0E0,0E0,0E0],"parents":[2147483647,0,0,1,1,2,2,3,3,4,4,5,5,6,6,7,7,8,8,9,9,10,10,11,11,12,12,13,13,14,14,15,15,16,16,17,17,18,18,19,19,20,20,21,21,22,22,23,23,24,24,25,25,26,26,27,27,28,28,29,29,30,30],"right_children":[2,4,6,8,10,12,14,16,18,20,22,24,26,28,30,32,34,36,38,40,42,44,46,48,50,52,54,56,58,60,62,-1,-1,-1,-1,-1,-1,-1,-1,-1,-1,-1,-1,-1,-1,-1,-1,-1,-1,-1,-1,-1,-1,-1,-1,-1,-1,-1,-1,-1,-1,-1,-1],"split_conditions":[2.7342908E2,5.514198E-3,2.7813116E2,1.8036852E7,1.1516819E-2,5.0319365E6,2.834125E2,7.3914057E-1,-2.1238432E0,-1.10820875E5,2.8746788E5,-9.09329E5,5.6181942E1,9.114084E-1,2.860771E2,-5.065345E5,1.54848E5,-4.7649112E5,2.7334024E2,-3.3624332E6,1.625493E-1,5.785613E-1,7.76017E-1,7.720239E5,-2.121977E6,1.6869924E7,4.1646135E-1,-4.592839E2,4.6665E3,-7.97895E1,1.9118194E7,-1.6498728E-1,2.7233222E-2,1.1365443E-2,3.0307805E-3,1.4316331E-2,-1.0077267E-2,-3.4313258E-2,-1.12575464E-1,3.4575354E-2,-4.746568E-3,1.8069698E-2,2.7129075E-2,-2.1650968E-2,2.7526528E-2,-1.5587746E-2,4.5014918E-2,3.0826196E-2,9.19231E-3,-1.2499315E-2,1.9083923E-2,-7.754955E-3,-2.1705797E-2,-7.379275E-3,-5.413223E-2,-1.16840135E-2,-5.368305E-2,-3.0144466E-2,-1.0602493E-2,-5.2449163E-2,-9.571515E-2,-1.0356685E-1,-4.9875762E-2],"split_indices":[4,10,4,7,10,7,4,3,0,5,5,6,0,3,4,5,5,5,4,9,2,8,3,5,9,7,8,0,6,0,7,0,0,0,0,0,0,0,0,0,0,0,0,0,0,0,0,0,0,0,0,0,0,0,0,0,0,0,0,0,0,0,0],"split_type":[0,0,0,0,0,0,0,0,0,0,0,0,0,0,0,0,0,0,0,0,0,0,0,0,0,0,0,0,0,0,0,0,0,0,0,0,0,0,0,0,0,0,0,0,0,0,0,0,0,0,0,0,0,0,0,0,0,0,0,0,0,0,0],"sum_hessian":[6.7909E4,3.9819E4,2.809E4,2.3543E4,1.6276E4,1.3473E4,1.4617E4,2.1278E4,2.265E3,1.3207E4,3.069E3,1.867E3,1.1606E4,1.2489E4,2.128E3,1.627E3,1.9651E4,1.849E3,4.16E2,1.25E3,1.1957E4,1.494E3,1.575E3,1.055E3,8.12E2,1.0285E4,1.321E3,3.795E3,8.694E3,1.853E3,2.75E2,7E0,1.62E3,8.364E3,1.1287E4,1.66E2,1.683E3,3.91E2,2.5E1,9.8E1,1.152E3,8.386E3,3.571E3,6.2E1,1.432E3,2E1,1.555E3,8.27E2,2.28E2,2.91E2,5.21E2,4.883E3,5.402E3,1.28E2,1.193E3,5.31E2,3.264E3,7.911E3,7.83E2,1.711E3,1.42E2,2.17E2,5.8E1],"tree_param":{"num_deleted":"0","num_feature":"11","num_nodes":"63","size_leaf_vector":"1"}},{"base_weights":[-5.162974E-2,2.1207824E-1,-4.689097E-1,2.5777814E-1,-3.0327436E-1,-2.5392902E-1,-6.7998284E-1,1.2820971E-1,3.712412E-1,-1.9960278E-1,-7.326029E-1,3.062507E-1,-3.273819E-1,-6.057942E-1,-1.0678909E0,2.6084015E-1,3.13156E-2,3.236804E-1,6.286442E-1,-8.483182E-2,-4.2225856E-1,-3.198447E-1,-1.0703635E0,4.5083466E-1,-2.8196478E-2,-2.7796987E-1,-1.0406358E0,-3.2093114E-1,-6.9754374E-1,-9.8018277E-1,-1.6531918E0,2.8581709E-2,1.0358135E-2,5.555739E-3,-3.1439008E-3,-1.7252539E-3,1.7668959E-2,2.339733E-2,3.8995754E-2,-1.752575E-2,2.1156487E-3,-7.82199E-3,-3.0380417E-2,-2.8608649E-3,-3.4143165E-2,-9.611155E-2,-3.928037E-2,2.7866676E-2,-1.3855629E-3,-1.9945363E-2,1.8474033E-2,-8.527362E-3,-1.9375773E-2,-2.3178922E-2,-6.227177E-2,-1.2731313E-2,-2.5503296E-2,-2.5614133E-2,-4.176167E-2,-4.602253E-2,-8.442219E-2,-6.978805E-2,-1.1443879E-1],"categories":[],"categories_nodes":[],"categories_segments":[],"categories_sizes":[],"default_left":[0,0,0,0,0,0,0,0,0,0,0,0,0,0,0,0,0,0,0,0,0,0,0,0,0,0,0,0,0,0,0,0,0,0,0,0,0,0,0,0,0,0,0,0,0,0,0,0,0,0,0,0,0,0,0,0,0,0,0,0,0,0,0],"id":9,"left_children":[1,3,5,7,9,11,13,15,17,19,21,23,25,27,29,31,33,35,37,39,41,43,45,47,49,51,53,55,57,59,61,-1,-1,-1,-1,-1,-1,-1,-1,-1,-1,-1,-1,-1,-1,-1,-1,-1,-1,-1,-1,-1,-1,-1,-1,-1,-1,-1,-1,-1,-1,-1,-1],"loss_changes":[7.47292E3,9.8012964E2,1.1931426E3,5.618921E2,1.507399E2,5.362435E2,3.8121338E2,2.2934561E2,2.4927002E2,6.977884E1,9.153116E1,7.3078156E1,4.057141E2,2.9095825E2,1.0767334E2,1.2556854E2,7.753293E1,1.8300134E2,7.686426E1,6.0954365E1,4.5676285E1,2.8371841E1,8.630185E1,5.3783096E1,6.75198E1,1.2673059E2,8.758569E1,3.393033E1,2.1450684E2,7.688098E1,4.1964233E1,0E0,0E0,0E0,0E0,0E0,0E0,0E0,0E0,0E0,0E0,0E0,0E0,0E0,0E0,0E0,0E0,0E0,0E0,0E0,0E0,0E0,0E0,0E0,0E0,0E0,0E0,0E0,0E0,0E0,0E0,0E0,0E0],"parents":[2147483647,0,0,1,1,2,2,3,3,4,4,5,5,6,6,7,7,8,8,9,9,10,10,11,11,12,12,13,13,14,14,15,15,16,16,17,17,18,18,19,19,20,20,21,21,22,22,23,23,24,24,25,25,26,26,27,27,28,28,29,29,30,30],"right_children":[2,4,6,8,10,12,14,16,18,20,22,24,26,28,30,32,34,36,38,40,42,44,46,48,50,52,54,56,58,60,62,-1,-1,-1,-1,-1,-1,-1,-1,-1,-1,-1,-1,-1,-1,-1,-1,-1,-1,-1,-1,-1,-1,-1,-1,-1,-1,-1,-1,-1,-1,-1,-1],"split_conditions":[2.73943E2,1.770831E7,2.78595E2,4.687189E-3,-2.321992E1,5.0319365E6,2.834125E2,1.5184369E5,1.1516819E-2,-1.03524625E5,2.7215903E2,-9.09329E5,6.5071606E2,-5.54404E2,2.860771E2,8.1008965E-1,2.482153E0,-2.2455638E5,2.8746788E5,1.9593968E7,2.729622E2,2.6586056E-3,1.8927502E-3,2.7720578E2,7.57527E-3,1.6869924E7,-2.7656308E6,1.5416339E-1,9.569976E-2,-7.97895E1,-4.324631E2,2.8581709E-2,1.0358135E-2,5.555739E-3,-3.1439008E-3,-1.7252539E-3,1.7668959E-2,2.339733E-2,3.8995754E-2,-1.752575E-2,2.1156487E-3,-7.82199E-3,-3.0380417E-2,-2.8608649E-3,-3.4143165E-2,-9.611155E-2,-3.928037E-2,2.7866676E-2,-1.3855629E-3,-1.9945363E-2,1.8474033E-2,-8.527362E-3,-1.9375773E-2,-2.3178922E-2,-6.227177E-2,-1.2731313E-2,-2.5503296E-2,-2.5614133E-2,-4.176167E-2,-4.602253E-2,-8.442219E-2,-6.978805E-2,-1.1443879E-1],"split_indices":[4,7,4,10,0,7,4,5,10,5,4,6,0,0,4,3,1,5,5,7,4,10,10,4,10,7,9,2,2,0,0,0,0,0,0,0,0,0,0,0,0,0,0,0,0,0,0,0,0,0,0,0,0,0,0,0,0,0,0,0,0,0,0],"split_type":[0,0,0,0,0,0,0,0,0,0,0,0,0,0,0,0,0,0,0,0,0,0,0,0,0,0,0,0,0,0,0,0,0,0,0,0,0,0,0,0,0,0,0,0,0,0,0,0,0,0,0,0,0,0,0,0,0,0,0,0,0,0,0],"sum_hessian":[6.7909E4,4.1612E4,2.6297E4,3.8223E4,3.389E3,1.3029E4,1.3268E4,1.7846E4,2.0377E4,2.731E3,6.58E2,1.51E3,1.1519E4,1.114E4,2.128E3,7.533E3,1.0313E4,1.7201E4,3.176E3,1.803E3,9.28E2,2.97E2,3.61E2,1.054E3,4.56E2,1.0774E4,7.45E2,2.715E3,8.425E3,1.853E3,2.75E2,1.108E3,6.425E3,5.583E3,4.73E3,1.317E3,1.5884E4,1.542E3,1.634E3,5.83E2,1.22E3,3.82E2,5.46E2,1.73E2,1.24E2,8.9E1,2.72E2,8.62E2,1.92E2,2.36E2,2.2E2,5.441E3,5.333E3,1.96E2,5.49E2,2.012E3,7.03E2,3.594E3,4.831E3,1.711E3,1.42E2,1.98E2,7.7E1],"tree_param":{"num_deleted":"0","num_feature":"11","num_nodes":"63","size_leaf_vector":"1"}},{"base_weights":[-3.8323384E-2,1.8968052E-1,-3.99107E-1,2.2863618E-1,-2.4962065E-1,-2.0356853E-1,-5.9109336E-1,1.6769157E-1,4.3424135E-1,-1.6122836E-1,-6.1568755E-1,2.7731082E-1,-2.6662454E-1,-5.2291965E-1,-9.4756716E-1,3.579224E-1,1.2941076E-1,1.4788006E-1,4.935104E-1,-5.6801237E-2,-3.6383903E-1,-2.4923839E-1,-9.156493E-1,4.0871096E-1,-2.6637701E-2,-2.2506504E-1,-8.665401E-1,-3.9337403E-1,-7.010887E-1,-8.6612105E-1,-1.4912393E0,1.06395E-2,2.3802545E-2,2.2068174E-5,9.617571E-3,1.3106822E-2,-1.0214739E-2,4.6989553E-2,2.3633491E-2,-1.5291171E-2,3.1175853E-3,-6.4194114E-3,-2.6401624E-2,-9.452888E-4,-2.8393373E-2,-8.3496414E-2,-3.3181597E-2,2.786534E-2,6.0145212E-3,-1.8318428E-2,1.689048E-2,-6.4111957E-3,-1.6191239E-2,-1.6848251E-2,-5.2732438E-2,-2.753869E-2,-1.3644083E-2,-4.2202845E-2,-2.4130102E-2,-3.61698E-2,-5.540368E-2,-8.427182E-2,-3.7421137E-2],"categories":[],"categories_nodes":[],"categories_segments":[],"categories_sizes":[],"default_left":[0,0,0,0,0,0,0,0,0,0,0,0,0,0,0,0,0,0,0,0,0,0,0,0,0,0,0,0,0,0,0,0,0,0,0,0,0,0,0,0,0,0,0,0,0,0,0,0,0,0,0,0,0,0,0,0,0,0,0,0,0,0,0],"id":10,"left_children":[1,3,5,7,9,11,13,15,17,19,21,23,25,27,29,31,33,35,37,39,41,43,45,47,49,51,53,55,57,59,61,-1,-1,-1,-1,-1,-1,-1,-1,-1,-1,-1,-1,-1,-1,-1,-1,-1,-1,-1,-1,-1,-1,-1,-1,-1,-1,-1,-1,-1,-1,-1,-1],"loss_changes":[5.5863574E3,7.121913E2,9.871255E2,4.788943E2,1.09592606E2,3.9517395E2,3.2196973E2,2.1467639E2,1.4824829E2,5.778312E1,7.220955E1,6.035853E1,2.8702374E2,2.5687036E2,9.298047E1,8.457428E1,1.9926633E2,6.0410877E1,6.689307E1,5.354686E1,3.5846878E1,2.1859684E1,6.7704865E1,4.514824E1,5.6706753E1,1.0301062E2,7.395941E1,1.22233826E2,1.4606104E2,6.3222046E1,3.8552307E1,0E0,0E0,0E0,0E0,0E0,0E0,0E0,0E0,0E0,0E0,0E0,0E0,0E0,0E0,0E0,0E0,0E0,0E0,0E0,0E0,0E0,0E0,0E0,0E0,0E0,0E0,0E0,0E0,0E0,0E0,0E0,0E0],"parents":[2147483647,0,0,1,1,2,2,3,3,4,4,5,5,6,6,7,7,8,8,9,9,10,10,11,11,12,12,13,13,14,14,15,15,16,16,17,17,18,18,19,19,20,20,21,21,22,22,23,23,24,24,25,25,26,26,27,27,28,28,29,29,30,30],"right_children":[2,4,6,8,10,12,14,16,18,20,22,24,26,28,30,32,34,36,38,40,42,44,46,48,50,52,54,56,58,60,62,-1,-1,-1,-1,-1,-1,-1,-1,-1,-1,-1,-1,-1,-1,-1,-1,-1,-1,-1,-1,-1,-1,-1,-1,-1,-1,-1,-1,-1,-1,-1,-1],"split_conditions":[2.73943E2,1.770831E7,2.78595E2,8.3549805E-3,-2.321992E1,5.0319365E6,2.834125E2,8.491569E-1,1.793625E4,-1.03524625E5,2.7215903E2,-9.09329E5,6.5071606E2,-3.617895E2,2.860771E2,7.996695E-1,3.0928925E-3,2.7308215E2,-6.949264E2,1.9593968E7,2.729622E2,2.6586056E-3,1.8927502E-3,2.7674118E2,7.57527E-3,1.6869924E7,-2.7656308E6,8.0709195E-1,-1.6613355E6,5.3063706E-3,1.9118194E7,1.06395E-2,2.3802545E-2,2.2068174E-5,9.617571E-3,1.3106822E-2,-1.0214739E-2,4.6989553E-2,2.3633491E-2,-1.5291171E-2,3.1175853E-3,-6.4194114E-3,-2.6401624E-2,-9.452888E-4,-2.8393373E-2,-8.3496414E-2,-3.3181597E-2,2.786534E-2,6.0145212E-3,-1.8318428E-2,1.689048E-2,-6.4111957E-3,-1.6191239E-2,-1.6848251E-2,-5.2732438E-2,-2.753869E-2,-1.3644083E-2,-4.2202845E-2,-2.4130102E-2,-3.61698E-2,-5.540368E-2,-8.427182E-2,-3.7421137E-2],"split_indices":[4,7,4,10,0,7,4,3,5,5,4,6,0,0,4,8,10,4,0,7,4,10,10,4,10,7,9,1,9,10,7,0,0,0,0,0,0,0,0,0,0,0,0,0,0,0,0,0,0,0,0,0,0,0,0,0,0,0,0,0,0,0,0],"split_type":[0,0,0,0,0,0,0,0,0,0,0,0,0,0,0,0,0,0,0,0,0,0,0,0,0,0,0,0,0,0,0,0,0,0,0,0,0,0,0,0,0,0,0,0,0,0,0,0,0,0,0,0,0,0,0,0,0,0,0,0,0,0,0],"sum_hessian":[6.7909E4,4.1612E4,2.6297E4,3.8223E4,3.389E3,1.3029E4,1.3268E4,2.9485E4,8.738E3,2.731E3,6.58E2,1.51E3,1.1519E4,1.114E4,2.128E3,4.938E3,2.4547E4,1.499E3,7.239E3,1.803E3,9.28E2,2.97E2,3.61E2,1.054E3,4.56E2,1.0774E4,7.45E2,6.452E3,4.688E3,1.853E3,2.75E2,2.217E3,2.721E3,8.051E3,1.6496E4,1.132E3,3.67E2,3.21E2,6.918E3,5.83E2,1.22E3,3.82E2,5.46E2,1.73E2,1.24E2,8.9E1,2.72E2,6.95E2,3.59E2,2.36E2,2.2E2,5.441E3,5.333E3,1.96E2,5.49E2,2.796E3,3.656E3,2.832E3,1.856E3,1.168E3,6.85E2,2.17E2,5.8E1],"tree_param":{"num_deleted":"0","num_feature":"11","num_nodes":"63","size_leaf_vector":"1"}},{"base_weights":[-2.959022E-2,1.4797053E-1,-3.7969875E-1,1.9435054E-1,-1.8857932E-1,-2.7806017E-1,-6.5703654E-1,1.3932207E-1,3.785731E-1,-6.9687925E-2,-3.3387342E-1,3.161345E-1,-3.157865E-1,-4.8788214E-1,-8.1943107E-1,8.980571E-2,2.572945E-1,9.300909E-2,4.4418705E-1,-4.071781E-2,-6.618359E-1,1.2405516E-2,-4.0882948E-1,5.8523655E-1,1.8371916E-1,-1.9172618E-1,-4.3598625E-1,-4.4934142E-1,-1.123768E0,-3.152336E-1,-9.215854E-1,1.01571325E-2,1.7618701E-3,-5.5577736E-3,1.431829E-2,1.153365E-2,-9.015587E-3,1.880742E-2,2.8445978E-2,-4.8969826E-4,-2.5936855E-2,1.9059358E-2,-4.4045996E-2,1.5558006E-2,-2.5950123E-2,-2.9850462E-2,-8.872959E-3,1.3558581E-2,3.5865117E-2,1.0527083E-2,-7.223852E-2,-1.8724984E-2,-4.538696E-3,-1.855321E-2,-3.674708E-2,-5.1512845E-2,-2.0824606E-2,-6.149143E-2,-9.720606E-4,-5.0166465E-2,-9.596547E-3,-4.4311035E-2,-9.17023E-2],"categories":[],"categories_nodes":[],"categories_segments":[],"categories_sizes":[],"default_left":[0,0,0,0,0,0,0,0,0,0,0,0,0,0,0,0,0,0,0,0,0,0,0,0,0,0,0,0,0,0,0,0,0,0,0,0,0,0,0,0,0,0,0,0,0,0,0,0,0,0,0,0,0,0,0,0,0,0,0,0,0,0,0],"id":11,"left_children":[1,3,5,7,9,11,13,15,17,19,21,23,25,27,29,31,33,35,37,39,41,43,45,47,49,51,53,55,57,59,61,-1,-1,-1,-1,-1,-1,-1,-1,-1,-1,-1,-1,-1,-1,-1,-1,-1,-1,-1,-1,-1,-1,-1,-1,-1,-1,-1,-1,-1,-1,-1,-1],"loss_changes":[4.2217173E3,7.03371E2,6.4397485E2,4.01412E2,9.425943E1,3.7502075E2,1.6793481E2,1.7811554E2,1.7061523E2,5.14883E1,6.375229E1,3.549009E1,2.3443774E2,7.31156E1,1.6066553E2,1.3284435E2,9.65943E1,6.411937E1,6.263794E1,4.2331123E1,3.2327145E1,6.969862E1,8.779971E1,1.3451492E1,2.9613562E1,1.4279828E2,1.5474536E2,5.3651184E1,2.0004562E1,4.460508E1,8.220923E1,0E0,0E0,0E0,0E0,0E0,0E0,0E0,0E0,0E0,0E0,0E0,0E0,0E0,0E0,0E0,0E0,0E0,0E0,0E0,0E0,0E0,0E0,0E0,0E0,0E0,0E0,0E0,0E0,0E0,0E0,0E0,0E0],"parents":[2147483647,0,0,1,1,2,2,3,3,4,4,5,5,6,6,7,7,8,8,9,9,10,10,11,11,12,12,13,13,14,14,15,15,16,16,17,17,18,18,19,19,20,20,21,21,22,22,23,23,24,24,25,25,26,26,27,27,28,28,29,29,30,30],"right_children":[2,4,6,8,10,12,14,16,18,20,22,24,26,28,30,32,34,36,38,40,42,44,46,48,50,52,54,56,58,60,62,-1,-1,-1,-1,-1,-1,-1,-1,-1,-1,-1,-1,-1,-1,-1,-1,-1,-1,-1,-1,-1,-1,-1,-1,-1,-1,-1,-1,-1,-1,-1,-1],"split_conditions":[2.7517966E2,1.7280398E7,2.8142053E2,8.3549805E-3,-2.447895E2,4.307931E6,-4.96737E2,1.625493E-1,1.793625E4,1.4368906E5,2.7149707E2,5.1762E-1,-3.437895E2,2.860771E2,5.0859254E-2,-4.197895E2,-2.112515E5,2.7308215E2,1.625493E-1,5.4826653E-3,2.7210892E2,2.6586056E-3,-2.801318E6,1.5870628E-1,3.756233E-1,8.522597E-1,6.7941267E-3,8.1672635E6,1.9284086E7,9.881646E-1,2.860771E2,1.01571325E-2,1.7618701E-3,-5.5577736E-3,1.431829E-2,1.153365E-2,-9.015587E-3,1.880742E-2,2.8445978E-2,-4.8969826E-4,-2.5936855E-2,1.9059358E-2,-4.4045996E-2,1.5558006E-2,-2.5950123E-2,-2.9850462E-2,-8.872959E-3,1.3558581E-2,3.5865117E-2,1.0527083E-2,-7.223852E-2,-1.8724984E-2,-4.538696E-3,-1.855321E-2,-3.674708E-2,-5.1512845E-2,-2.0824606E-2,-6.149143E-2,-9.720606E-4,-5.0166465E-2,-9.596547E-3,-4.4311035E-2,-9.17023E-2],"split_indices":[4,7,4,10,0,7,0,2,5,5,4,1,0,4,2,0,5,4,2,10,4,10,9,8,8,1,10,7,7,1,4,0,0,0,0,0,0,0,0,0,0,0,0,0,0,0,0,0,0,0,0,0,0,0,0,0,0,0,0,0,0,0,0],"split_type":[0,0,0,0,0,0,0,0,0,0,0,0,0,0,0,0,0,0,0,0,0,0,0,0,0,0,0,0,0,0,0,0,0,0,0,0,0,0,0,0,0,0,0,0,0,0,0,0,0,0,0,0,0,0,0,0,0,0,0,0,0,0,0],"sum_hessian":[6.7909E4,4.5058E4,2.2851E4,3.9601E4,5.457E3,1.6724E4,6.127E3,3.0494E4,9.107E3,3.002E3,2.455E3,9.98E2,1.5726E4,3.003E3,3.124E3,2.148E4,9.014E3,1.702E3,7.405E3,2.863E3,1.39E2,4.37E2,2.018E3,3.28E2,6.7E2,7.74E3,7.986E3,2.833E3,1.7E2,5.27E2,2.597E3,6.98E3,1.45E4,6.59E2,8.355E3,1.132E3,5.7E2,4.794E3,2.611E3,2.69E3,1.73E2,2.4E1,1.15E2,2.8E2,1.57E2,1.112E3,9.06E2,9.8E1,2.3E2,6.6E2,1E1,2.753E3,4.987E3,6.563E3,1.423E3,1.5E2,2.683E3,1.55E2,1.5E1,7.9E1,4.48E2,2.502E3,9.5E1],"tree_param":{"num_deleted":"0","num_feature":"11","num_nodes":"63","size_leaf_vector":"1"}},{"base_weights":[-2.3295213E-2,9.724992E-2,-4.167077E-1,1.496477E-1,-1.8420984E-1,-3.6360633E-1,-7.6071066E-1,1.18249334E-1,3.6381692E-1,-1.2787539E-1,-3.9226252E-1,-2.112123E-1,-4.4163376E-1,-6.9286394E-1,-1.2137072E0,3.8582706E-3,1.5145864E-1,-5.7955004E-2,4.3479854E-1,-3.594128E-1,-7.926726E-2,1.1968452E-1,-4.7755283E-1,-3.1871462E-1,-1.118483E-1,-3.4698263E-1,-5.6624097E-1,-5.674553E-1,-9.0556055E-1,-1.3789616E0,-5.825348E-1,4.813714E-3,-4.750367E-3,-2.8091208E-3,9.167606E-3,5.049013E-3,-2.139557E-2,2.621383E-2,1.3795878E-2,-4.2210333E-3,-2.3604376E-2,-4.950915E-3,2.2815559E-2,1.9997679E-2,-2.1780265E-2,-1.999084E-2,-3.8488735E-2,-9.119912E-3,-2.5183354E-2,-2.2545008E-2,-5.768156E-4,-1.3668348E-2,-2.7975634E-2,-2.4214394E-2,-3.953031E-2,-2.4786254E-2,-5.981017E-2,-5.0946105E-2,-3.053549E-2,-4.7952715E-2,-8.477415E-2,-1.1869378E-2,-8.927822E-2],"categories":[],"categories_nodes":[],"categories_segments":[],"categories_sizes":[],"default_left":[0,0,0,0,0,0,0,0,0,0,0,0,0,0,0,0,0,0,0,0,0,0,0,0,0,0,0,0,0,0,0,0,0,0,0,0,0,0,0,0,0,0,0,0,0,0,0,0,0,0,0,0,0,0,0,0,0,0,0,0,0,0,0],"id":12,"left_children":[1,3,5,7,9,11,13,15,17,19,21,23,25,27,29,31,33,35,37,39,41,43,45,47,49,51,53,55,57,59,61,-1,-1,-1,-1,-1,-1,-1,-1,-1,-1,-1,-1,-1,-1,-1,-1,-1,-1,-1,-1,-1,-1,-1,-1,-1,-1,-1,-1,-1,-1,-1,-1],"loss_changes":[3.2206016E3,7.66666E2,2.9068042E2,2.9466083E2,9.557764E1,1.6400122E2,6.459241E1,1.4520282E2,1.6776813E2,7.224856E1,7.594537E1,4.990204E1,1.074375E2,4.8939697E1,2.798465E1,7.859445E1,1.9618555E2,4.7552895E1,6.803699E1,3.447705E1,5.6204998E1,3.892623E1,3.3539337E1,5.65092E1,8.2675446E1,8.103174E1,7.2026855E1,5.212918E1,2.2307129E1,2.7348206E1,2.4074244E1,0E0,0E0,0E0,0E0,0E0,0E0,0E0,0E0,0E0,0E0,0E0,0E0,0E0,0E0,0E0,0E0,0E0,0E0,0E0,0E0,0E0,0E0,0E0,0E0,0E0,0E0,0E0,0E0,0E0,0E0,0E0,0E0],"parents":[2147483647,0,0,1,1,2,2,3,3,4,4,5,5,6,6,7,7,8,8,9,9,10,10,11,11,12,12,13,13,14,14,15,15,16,16,17,17,18,18,19,19,20,20,21,21,22,22,23,23,24,24,25,25,26,26,27,27,28,28,29,29,30,30],"right_children":[2,4,6,8,10,12,14,16,18,20,22,24,26,28,30,32,34,36,38,40,42,44,46,48,50,52,54,56,58,60,62,-1,-1,-1,-1,-1,-1,-1,-1,-1,-1,-1,-1,-1,-1,-1,-1,-1,-1,-1,-1,-1,-1,-1,-1,-1,-1,-1,-1,-1,-1,-1,-1],"split_conditions":[2.7766278E2,1.7280398E7,2.834125E2,1.0078273E-2,-7.97895E1,-5.01737E2,2.860771E2,2.8535323E-3,-1.596975E4,7.2988564E-1,2.7149707E2,6.435334E-1,1.3100342E-1,5.3063706E-3,1.9118194E7,1.9605031E5,-1.8979188E5,2.737365E2,-1.093266E6,-5.7130554E2,-1.4686238E6,2.6586056E-3,7.5271606E2,5.292848E-1,-6.859264E2,4.4930468E0,2.8151392E2,-7.97895E1,1.422356E-1,-5.54404E2,-3.117895E2,4.813714E-3,-4.750367E-3,-2.8091208E-3,9.167606E-3,5.049013E-3,-2.139557E-2,2.621383E-2,1.3795878E-2,-4.2210333E-3,-2.3604376E-2,-4.950915E-3,2.2815559E-2,1.9997679E-2,-2.1780265E-2,-1.999084E-2,-3.8488735E-2,-9.119912E-3,-2.5183354E-2,-2.2545008E-2,-5.768156E-4,-1.3668348E-2,-2.7975634E-2,-2.4214394E-2,-3.953031E-2,-2.4786254E-2,-5.981017E-2,-5.0946105E-2,-3.053549E-2,-4.7952715E-2,-8.477415E-2,-1.1869378E-2,-8.927822E-2],"split_indices":[4,7,4,10,0,0,4,10,5,1,4,1,2,10,7,5,5,4,9,0,9,10,0,1,0,1,4,0,8,0,0,0,0,0,0,0,0,0,0,0,0,0,0,0,0,0,0,0,0,0,0,0,0,0,0,0,0,0,0,0,0,0,0],"split_type":[0,0,0,0,0,0,0,0,0,0,0,0,0,0,0,0,0,0,0,0,0,0,0,0,0,0,0,0,0,0,0,0,0,0,0,0,0,0,0,0,0,0,0,0,0,0,0,0,0,0,0,0,0,0,0,0,0,0,0,0,0,0,0],"sum_hessian":[6.7909E4,5.1982E4,1.5927E4,4.3824E4,8.158E3,1.3799E4,2.128E3,3.8222E4,5.602E3,6.421E3,1.737E3,4.674E3,9.125E3,1.853E3,2.75E2,8.6E3,2.9622E4,8.07E2,4.795E3,1.113E3,5.308E3,2.48E2,1.489E3,2.244E3,2.43E3,5.188E3,3.937E3,1.168E3,6.85E2,2.17E2,5.8E1,4.445E3,4.155E3,3.944E3,2.5678E4,5.65E2,2.42E2,3.066E3,1.729E3,3.24E2,7.89E2,5.12E3,1.88E2,1.65E2,8.3E1,1.178E3,3.11E2,1.293E3,9.51E2,5.54E2,1.876E3,3.855E3,1.333E3,2.886E3,1.051E3,1.05E3,1.18E2,4.93E2,1.92E2,9.5E1,1.22E2,4.6E1,1.2E1],"tree_param":{"num_deleted":"0","num_feature":"11","num_nodes":"63","size_leaf_vector":"1"}},{"base_weights":[-1.8627217E-2,8.397224E-2,-3.7566316E-1,1.2775564E-1,-1.7732824E-1,-3.26339E-1,-6.7738575E-1,1.0010875E-1,3.3698383E-1,-1.5060303E-1,-6.029207E-1,-1.4613558E-1,-3.8193443E-1,-6.1600333E-1,-1.087261E0,8.914443E-2,4.5251375E-1,-1.5193208E-2,3.983104E-1,-1.9848543E-1,-9.470689E-3,4.374988E-1,-6.923678E-1,-3.8148382E-1,-8.961206E-2,-3.3023477E-1,-5.1966596E-1,-5.137589E-1,-8.252044E-1,-1.2377834E0,-5.126649E-1,5.991571E-3,-2.5558535E-3,2.6799298E-3,2.9873604E-2,8.405768E-3,-1.0501959E-2,2.3463778E-2,1.1832076E-2,-1.624782E-2,-4.6617533E-3,-2.8027138E-3,3.767133E-2,1.3340657E-2,3.0628515E-2,-3.8494702E-2,1.4264509E-2,-1.0078245E-2,-3.5398196E-2,8.236988E-3,-6.4981184E-3,-3.2665323E-2,-1.5221131E-2,-1.0402622E-2,-2.9155597E-2,-2.2594195E-2,-5.380076E-2,-1.4988848E-3,-4.354354E-2,-4.32414E-2,-7.594036E-2,-9.496561E-3,-8.2001776E-2],"categories":[],"categories_nodes":[],"categories_segments":[],"categories_sizes":[],"default_left":[0,0,0,0,0,0,0,0,0,0,0,0,0,0,0,0,0,0,0,0,0,0,0,0,0,0,0,0,0,0,0,0,0,0,0,0,0,0,0,0,0,0,0,0,0,0,0,0,0,0,0,0,0,0,0,0,0,0,0,0,0,0,0],"id":13,"left_children":[1,3,5,7,9,11,13,15,17,19,21,23,25,27,29,31,33,35,37,39,41,43,45,47,49,51,53,55,57,59,61,-1,-1,-1,-1,-1,-1,-1,-1,-1,-1,-1,-1,-1,-1,-1,-1,-1,-1,-1,-1,-1,-1,-1,-1,-1,-1,-1,-1,-1,-1,-1,-1],"loss_changes":[2.48769E3,6.035386E2,2.2537842E2,2.6132196E2,8.6022125E1,1.30495E2,5.2894043E1,1.5416714E2,1.138913E2,4.814714E1,4.190184E1,4.0858353E1,7.0736084E1,3.923242E1,2.3236572E1,1.6660889E2,6.9590546E1,2.8001677E1,5.1413574E1,7.0784836E1,6.4224754E1,9.123168E-1,3.1446838E1,3.4807587E1,2.5474081E1,6.020172E1,5.3575684E1,4.2931213E1,2.201715E1,2.1534943E1,2.1155096E1,0E0,0E0,0E0,0E0,0E0,0E0,0E0,0E0,0E0,0E0,0E0,0E0,0E0,0E0,0E0,0E0,0E0,0E0,0E0,0E0,0E0,0E0,0E0,0E0,0E0,0E0,0E0,0E0,0E0,0E0,0E0,0E0],"parents":[2147483647,0,0,1,1,2,2,3,3,4,4,5,5,6,6,7,7,8,8,9,9,10,10,11,11,12,12,13,13,14,14,15,15,16,16,17,17,18,18,19,19,20,20,21,21,22,22,23,23,24,24,25,25,26,26,27,27,28,28,29,29,30,30],"right_children":[2,4,6,8,10,12,14,16,18,20,22,24,26,28,30,32,34,36,38,40,42,44,46,48,50,52,54,56,58,60,62,-1,-1,-1,-1,-1,-1,-1,-1,-1,-1,-1,-1,-1,-1,-1,-1,-1,-1,-1,-1,-1,-1,-1,-1,-1,-1,-1,-1,-1,-1,-1,-1],"split_conditions":[2.779482E2,1.770831E7,2.834125E2,1.0404585E-2,7.2071606E2,-5.54404E2,2.860771E2,6.0962076E0,-1.596975E4,2.16224E7,2.7149707E2,-6.859264E2,2.8142053E2,5.634117E-3,1.9118194E7,4.2152286E0,-4.592839E2,-3.647543E2,-9.8565475E5,3.2500764E-3,4.327911E-3,2.7131714E2,5.0001247E-3,-6.949264E2,-6.451668E2,7.2047625E6,5.0859254E-2,-7.97895E1,-4.4076155E6,-5.54404E2,-3.117895E2,5.991571E-3,-2.5558535E-3,2.6799298E-3,2.9873604E-2,8.405768E-3,-1.0501959E-2,2.3463778E-2,1.1832076E-2,-1.624782E-2,-4.6617533E-3,-2.8027138E-3,3.767133E-2,1.3340657E-2,3.0628515E-2,-3.8494702E-2,1.4264509E-2,-1.0078245E-2,-3.5398196E-2,8.236988E-3,-6.4981184E-3,-3.2665323E-2,-1.5221131E-2,-1.0402622E-2,-2.9155597E-2,-2.2594195E-2,-5.380076E-2,-1.4988848E-3,-4.354354E-2,-4.32414E-2,-7.594036E-2,-9.496561E-3,-8.2001776E-2],"split_indices":[4,7,4,10,0,0,4,1,5,7,4,0,4,10,7,1,0,0,9,10,10,4,10,0,0,7,2,0,9,0,0,0,0,0,0,0,0,0,0,0,0,0,0,0,0,0,0,0,0,0,0,0,0,0,0,0,0,0,0,0,0,0,0],"split_type":[0,0,0,0,0,0,0,0,0,0,0,0,0,0,0,0,0,0,0,0,0,0,0,0,0,0,0,0,0,0,0,0,0,0,0,0,0,0,0,0,0,0,0,0,0,0,0,0,0,0,0,0,0,0,0,0,0,0,0,0,0,0,0],"sum_hessian":[6.7909E4,5.2751E4,1.5158E4,4.5181E4,7.57E3,1.303E4,2.128E3,3.9909E4,5.272E3,7.124E3,4.46E2,3.073E3,9.957E3,1.853E3,2.75E2,3.8706E4,1.203E3,7.82E2,4.49E3,5.319E3,1.805E3,3.5E1,4.11E2,5.94E2,2.479E3,7.242E3,2.715E3,1.247E3,6.06E2,2.17E2,5.8E1,3.1758E4,6.948E3,3.21E2,8.82E2,4.03E2,3.79E2,3.119E3,1.371E3,2.415E3,2.904E3,1.702E3,1.03E2,1.9E1,1.6E1,3.81E2,3E1,3.84E2,2.1E2,3.39E2,2.14E3,5.34E2,6.708E3,4.6E2,2.255E3,1.125E3,1.22E2,3.3E1,5.73E2,9.5E1,1.22E2,4.6E1,1.2E1],"tree_param":{"num_deleted":"0","num_feature":"11","num_nodes":"63","size_leaf_vector":"1"}},{"base_weights":[-1.4874546E-2,7.388022E-2,-3.3844772E-1,1.1277876E-1,-1.5389645E-1,-2.9317284E-1,-6.038986E-1,9.297711E-2,3.64774E-1,-1.269029E-1,-5.74069E-1,-2.1063238E-1,-4.1389003E-1,-5.485896E-1,-9.7324264E-1,5.251096E-2,1.7234124E-1,4.031836E-1,-7.3568195E-2,-1.7596354E-1,1.3078641E-2,4.4499373E-1,-6.572768E-1,-3.0433002E-1,-1.421615E-1,-1.3824727E-1,-4.5998904E-1,-5.0969297E-1,-1.0104252E0,-8.023479E-1,-1.396766E0,1.2163277E-2,1.5027741E-3,-6.0898364E-3,1.0693639E-2,2.5354713E-2,1.1338342E-2,-4.5034123E-4,-6.6963576E-2,-1.4559512E-2,-4.126798E-3,-4.4629513E-3,1.5981661E-2,1.3532899E-2,3.1195927E-2,-2.5183076E-2,-6.2354643E-2,-9.693434E-3,-2.2840623E-2,-2.1956295E-3,-1.309438E-2,9.809525E-3,-1.1946446E-2,-2.7043942E-2,-1.4983411E-2,-1.9023158E-2,-3.4620684E-2,-4.5670677E-2,-8.3786145E-2,-4.6455123E-2,2.4712735E-4,-8.8179424E-2,-5.516231E-2],"categories":[],"categories_nodes":[],"categories_segments":[],"categories_sizes":[],"default_left":[0,0,0,0,0,0,0,0,0,0,0,0,0,0,0,0,0,0,0,0,0,0,0,0,0,0,0,0,0,0,0,0,0,0,0,0,0,0,0,0,0,0,0,0,0,0,0,0,0,0,0,0,0,0,0,0,0,0,0,0,0,0,0],"id":14,"left_children":[1,3,5,7,9,11,13,15,17,19,21,23,25,27,29,31,33,35,37,39,41,43,45,47,49,51,53,55,57,59,61,-1,-1,-1,-1,-1,-1,-1,-1,-1,-1,-1,-1,-1,-1,-1,-1,-1,-1,-1,-1,-1,-1,-1,-1,-1,-1,-1,-1,-1,-1,-1,-1],"loss_changes":[1.9503092E3,4.7220297E2,1.7550586E2,2.2710736E2,8.809947E1,1.2436377E2,4.2957397E1,1.3553488E2,5.585971E1,5.0176865E1,4.0060852E1,4.756018E1,6.4372925E1,3.2789978E1,1.885559E1,1.19733215E2,1.7412842E2,5.5778015E1,2.1887701E1,5.8216522E1,5.954137E1,9.540796E-1,3.869435E1,5.266501E1,5.0439842E1,2.4559912E1,5.617224E1,4.0161987E1,7.6988373E0,2.0367798E1,6.4525604E0,0E0,0E0,0E0,0E0,0E0,0E0,0E0,0E0,0E0,0E0,0E0,0E0,0E0,0E0,0E0,0E0,0E0,0E0,0E0,0E0,0E0,0E0,0E0,0E0,0E0,0E0,0E0,0E0,0E0,0E0,0E0,0E0],"parents":[2147483647,0,0,1,1,2,2,3,3,4,4,5,5,6,6,7,7,8,8,9,9,10,10,11,11,12,12,13,13,14,14,15,15,16,16,17,17,18,18,19,19,20,20,21,21,22,22,23,23,24,24,25,25,26,26,27,27,28,28,29,29,30,30],"right_children":[2,4,6,8,10,12,14,16,18,20,22,24,26,28,30,32,34,36,38,40,42,44,46,48,50,52,54,56,58,60,62,-1,-1,-1,-1,-1,-1,-1,-1,-1,-1,-1,-1,-1,-1,-1,-1,-1,-1,-1,-1,-1,-1,-1,-1,-1,-1,-1,-1,-1,-1,-1,-1],"split_conditions":[2.7813116E2,1.770831E7,2.834125E2,1.1970216E-2,7.2071606E2,-3.437895E2,2.860771E2,1.5164804E-1,2.7529807E2,2.16224E7,2.7149707E2,8.0709195E-1,3.573938E-2,-7.97895E1,-4.324631E2,-6.00404E2,-2.112515E5,-1.121816E6,-1.0628391E2,3.2500764E-3,-2.9695062E6,2.7131714E2,-1.28093E5,5.3152555E-1,4.4930468E0,6.184794E-1,-1.6613355E6,5.119087E-3,2.8524734E2,1.9284086E7,8.7073046E-1,1.2163277E-2,1.5027741E-3,-6.0898364E-3,1.0693639E-2,2.5354713E-2,1.1338342E-2,-4.5034123E-4,-6.6963576E-2,-1.4559512E-2,-4.126798E-3,-4.4629513E-3,1.5981661E-2,1.3532899E-2,3.1195927E-2,-2.5183076E-2,-6.2354643E-2,-9.693434E-3,-2.2840623E-2,-2.1956295E-3,-1.309438E-2,9.809525E-3,-1.1946446E-2,-2.7043942E-2,-1.4983411E-2,-1.9023158E-2,-3.4620684E-2,-4.5670677E-2,-8.3786145E-2,-4.6455123E-2,2.4712735E-4,-8.8179424E-2,-5.516231E-2],"split_indices":[4,7,4,10,0,0,4,2,4,7,4,1,2,0,0,0,5,9,0,10,9,4,6,1,1,8,9,10,4,7,3,0,0,0,0,0,0,0,0,0,0,0,0,0,0,0,0,0,0,0,0,0,0,0,0,0,0,0,0,0,0,0,0],"split_type":[0,0,0,0,0,0,0,0,0,0,0,0,0,0,0,0,0,0,0,0,0,0,0,0,0,0,0,0,0,0,0,0,0,0,0,0,0,0,0,0,0,0,0,0,0,0,0,0,0,0,0,0,0,0,0,0,0,0,0,0,0,0,0],"sum_hessian":[6.7909E4,5.3292E4,1.4617E4,4.5519E4,7.773E3,1.2489E4,2.128E3,4.2204E4,3.315E3,7.305E3,4.68E2,7.419E3,5.07E3,1.853E3,2.75E2,2.7953E4,1.4251E4,3.048E3,2.67E2,5.409E3,1.896E3,3.5E1,4.33E2,3.131E3,4.288E3,7.27E2,4.343E3,1.711E3,1.42E2,1.98E2,7.7E1,2.943E3,2.501E4,1.763E3,1.2488E4,1.917E3,1.131E3,2.55E2,1.2E1,2.421E3,2.988E3,1.422E3,4.74E2,1.9E1,1.6E1,3.45E2,8.8E1,1.817E3,1.314E3,2.356E3,1.932E3,1.68E2,5.59E2,2.885E3,1.458E3,1.004E3,7.07E2,1.26E2,1.6E1,1.71E2,2.7E1,3.2E1,4.5E1],"tree_param":{"num_deleted":"0","num_feature":"11","num_nodes":"63","size_leaf_vector":"1"}},{"base_weights":[-1.2561963E-2,6.660836E-2,-3.011932E-1,-1.4959975E-2,1.4665791E-1,-2.5936586E-1,-5.4643625E-1,3.0201329E-2,-1.5445684E-1,2.3028353E-1,4.3183103E-2,-1.403778E-1,-3.2347545E-1,-4.9545115E-1,-8.8694346E-1,5.7728565E-3,3.469121E-1,-1.06607035E-1,-3.8307235E-1,3.1479E-1,1.5956178E-1,-9.2385E-2,1.2282859E-1,-6.960623E-2,-2.3339248E-1,-3.661421E-1,-1.4045939E-1,-4.6047077E-1,-9.107726E-1,-1.0146209E0,-4.0015307E-1,4.5009768E-3,-2.7208624E-3,1.9664764E-2,-7.2015636E-3,-1.7779235E-2,-3.119884E-3,-3.4681843E-3,-2.6012793E-2,1.6897155E-2,1.5732428E-3,1.17751565E-2,2.9312305E-3,1.7188023E-3,-1.36105735E-2,8.246636E-3,-7.674601E-3,-1.9573329E-2,-1.6240847E-3,-3.035585E-2,-1.0475466E-2,-1.7682154E-2,-4.5924414E-2,-2.709025E-2,-1.7614877E-3,-1.709573E-2,-3.1405494E-2,-4.1024424E-2,-7.658368E-2,-3.5928495E-2,-6.1871808E-2,-5.861861E-3,-6.961109E-2],"categories":[],"categories_nodes":[],"categories_segments":[],"categories_sizes":[],"default_left":[0,0,0,0,0,0,0,0,0,0,0,0,0,0,0,0,0,0,0,0,0,0,0,0,0,0,0,0,0,0,0,0,0,0,0,0,0,0,0,0,0,0,0,0,0,0,0,0,0,0,0,0,0,0,0,0,0,0,0,0,0,0,0],"id":15,"left_children":[1,3,5,7,9,11,13,15,17,19,21,23,25,27,29,31,33,35,37,39,41,43,45,47,49,51,53,55,57,59,61,-1,-1,-1,-1,-1,-1,-1,-1,-1,-1,-1,-1,-1,-1,-1,-1,-1,-1,-1,-1,-1,-1,-1,-1,-1,-1,-1,-1,-1,-1,-1,-1],"loss_changes":[1.5518336E3,3.479793E2,1.4980774E2,1.6630208E2,2.327337E2,9.523181E1,3.652173E1,1.5428448E2,7.05827E1,8.8849365E1,1.2982834E2,2.8783478E1,6.332379E1,2.6515717E1,1.6747986E1,9.389105E1,3.257437E1,5.875594E1,4.8034714E1,4.4438965E1,6.207515E1,1.0144708E2,8.814304E1,2.969229E1,1.6742424E1,4.510913E1,6.4851494E1,3.381067E1,6.7594986E0,1.3491135E1,1.6396423E1,0E0,0E0,0E0,0E0,0E0,0E0,0E0,0E0,0E0,0E0,0E0,0E0,0E0,0E0,0E0,0E0,0E0,0E0,0E0,0E0,0E0,0E0,0E0,0E0,0E0,0E0,0E0,0E0,0E0,0E0,0E0,0E0],"parents":[2147483647,0,0,1,1,2,2,3,3,4,4,5,5,6,6,7,7,8,8,9,9,10,10,11,11,12,12,13,13,14,14,15,15,16,16,17,17,18,18,19,19,20,20,21,21,22,22,23,23,24,24,25,25,26,26,27,27,28,28,29,29,30,30],"right_children":[2,4,6,8,10,12,14,16,18,20,22,24,26,28,30,32,34,36,38,40,42,44,46,48,50,52,54,56,58,60,62,-1,-1,-1,-1,-1,-1,-1,-1,-1,-1,-1,-1,-1,-1,-1,-1,-1,-1,-1,-1,-1,-1,-1,-1,-1,-1,-1,-1,-1,-1,-1,-1],"split_conditions":[2.7813116E2,4.687189E-3,2.834125E2,1.770831E7,3.884885E6,-5.01737E2,2.860771E2,1.9369447E2,-2.321992E1,9.3310547E-1,6.612213E-1,2.8142053E2,-3.86718E5,-7.97895E1,1.9118194E7,1.3639281E5,2.7210892E2,6.9621193E-1,2.7272534E2,9.6321E4,-3.952839E2,-3.437895E2,-1.0832002E6,6.327439E6,8.1672635E6,8.1671606E2,2.7732681E-3,5.119087E-3,2.8524734E2,-5.54404E2,-3.117895E2,4.5009768E-3,-2.7208624E-3,1.9664764E-2,-7.2015636E-3,-1.7779235E-2,-3.119884E-3,-3.4681843E-3,-2.6012793E-2,1.6897155E-2,1.5732428E-3,1.17751565E-2,2.9312305E-3,1.7188023E-3,-1.36105735E-2,8.246636E-3,-7.674601E-3,-1.9573329E-2,-1.6240847E-3,-3.035585E-2,-1.0475466E-2,-1.7682154E-2,-4.5924414E-2,-2.709025E-2,-1.7614877E-3,-1.709573E-2,-3.1405494E-2,-4.1024424E-2,-7.658368E-2,-3.5928495E-2,-6.1871808E-2,-5.861861E-3,-6.961109E-2],"split_indices":[4,10,4,7,7,0,4,0,0,3,8,4,6,0,7,5,4,1,4,6,0,0,9,7,7,0,10,10,4,0,0,0,0,0,0,0,0,0,0,0,0,0,0,0,0,0,0,0,0,0,0,0,0,0,0,0,0,0,0,0,0,0,0],"split_type":[0,0,0,0,0,0,0,0,0,0,0,0,0,0,0,0,0,0,0,0,0,0,0,0,0,0,0,0,0,0,0,0,0,0,0,0,0,0,0,0,0,0,0,0,0,0,0,0,0,0,0,0,0,0,0,0,0,0,0,0,0,0,0],"sum_hessian":[6.7909E4,5.3292E4,1.4617E4,2.6396E4,2.6896E4,1.2489E4,2.128E3,1.9941E4,6.455E3,1.4874E4,1.2022E4,4.374E3,8.115E3,1.853E3,2.75E2,1.8514E4,1.427E3,5.339E3,1.116E3,6.775E3,8.099E3,4.449E3,7.573E3,2.485E3,1.889E3,6.58E3,1.535E3,1.711E3,1.42E2,2.17E2,5.8E1,7.715E3,1.0799E4,1.304E3,1.23E2,8.04E2,4.535E3,3.4E2,7.76E2,6.263E3,5.12E2,4.621E3,3.478E3,2.61E3,1.839E3,6.572E3,1.001E3,2.56E2,2.229E3,1.12E2,1.777E3,6.436E3,1.44E2,3.18E2,1.217E3,1.004E3,7.07E2,1.26E2,1.6E1,9.5E1,1.22E2,4.6E1,1.2E1],"tree_param":{"num_deleted":"0","num_feature":"11","num_nodes":"63","size_leaf_vector":"1"}},{"base_weights":[-1.1114675E-2,5.928808E-2,-2.67782E-1,-1.2856895E-2,1.3008972E-1,-1.9156069E-1,-3.820877E-1,2.5120895E-2,-1.3016486E-1,2.0298633E-1,3.9890334E-2,-9.7453296E-2,-2.7480882E-1,-3.5560352E-1,-7.7203864E-1,1.0799706E-1,-4.7709435E-2,-1.0388529E-1,-4.8151785E-1,2.7095628E-1,1.3640015E-1,-7.7698275E-2,1.0897265E-1,2.697694E-2,-1.8578982E-1,-6.9681656E-1,-2.561974E-1,-3.3360487E-1,-7.8193736E-1,-1.3153616E0,-6.8722486E-1,3.8882308E-3,1.822854E-2,-2.6807718E-3,2.8381512E-2,-1.1127096E-2,-2.1661574E-3,-2.9533377E-2,2.8139738E-2,1.45882955E-2,8.6283404E-4,-1.666507E-2,7.714229E-3,3.5509313E-4,-1.4885929E-2,7.3403083E-3,-6.965975E-3,6.3967356E-3,-7.7263596E-3,-1.1919714E-2,7.4935183E-3,-2.045926E-2,-5.680118E-2,-1.1998288E-2,-3.5119083E-2,-1.3589436E-2,-2.4167685E-2,-4.534034E-2,-1.4093235E-2,-2.0277254E-2,-7.1644075E-2,-3.131013E-2,-8.153118E-2],"categories":[],"categories_nodes":[],"categories_segments":[],"categories_sizes":[],"default_left":[0,0,0,0,0,0,0,0,0,0,0,0,0,0,0,0,0,0,0,0,0,0,0,0,0,0,0,0,0,0,0,0,0,0,0,0,0,0,0,0,0,0,0,0,0,0,0,0,0,0,0,0,0,0,0,0,0,0,0,0,0,0,0],"id":16,"left_children":[1,3,5,7,9,11,13,15,17,19,21,23,25,27,29,31,33,35,37,39,41,43,45,47,49,51,53,55,57,59,61,-1,-1,-1,-1,-1,-1,-1,-1,-1,-1,-1,-1,-1,-1,-1,-1,-1,-1,-1,-1,-1,-1,-1,-1,-1,-1,-1,-1,-1,-1,-1,-1],"loss_changes":[1.2271555E3,2.7222134E2,1.2728662E2,1.17604485E2,1.7684586E2,6.8695435E1,6.0110535E1,1.2037304E2,5.9560837E1,6.728522E1,9.767483E1,4.5279957E1,3.6374725E1,5.110669E1,1.61922E1,7.2327545E1,3.860743E1,4.316445E1,5.151233E1,3.8851257E1,6.3188446E1,8.302911E1,7.1168846E1,3.1372562E1,4.2571976E1,2.4295784E1,3.2124878E1,4.8097046E1,1.6479355E1,4.658058E0,1.7573471E1,0E0,0E0,0E0,0E0,0E0,0E0,0E0,0E0,0E0,0E0,0E0,0E0,0E0,0E0,0E0,0E0,0E0,0E0,0E0,0E0,0E0,0E0,0E0,0E0,0E0,0E0,0E0,0E0,0E0,0E0,0E0,0E0],"parents":[2147483647,0,0,1,1,2,2,3,3,4,4,5,5,6,6,7,7,8,8,9,9,10,10,11,11,12,12,13,13,14,14,15,15,16,16,17,17,18,18,19,19,20,20,21,21,22,22,23,23,24,24,25,25,26,26,27,27,28,28,29,29,30,30],"right_children":[2,4,6,8,10,12,14,16,18,20,22,24,26,28,30,32,34,36,38,40,42,44,46,48,50,52,54,56,58,60,62,-1,-1,-1,-1,-1,-1,-1,-1,-1,-1,-1,-1,-1,-1,-1,-1,-1,-1,-1,-1,-1,-1,-1,-1,-1,-1,-1,-1,-1,-1,-1,-1],"split_conditions":[2.7813116E2,4.687189E-3,2.8151392E2,1.770831E7,3.884885E6,-3.9087952E2,-8.8818054E1,1.5184369E5,7.0771606E2,9.401235E-1,6.612213E-1,-8.408739E5,7.2047625E6,2.860771E2,-2.098402E6,3.227161E2,3.2060605E-1,2.0050274E7,7.506919E-1,9.6321E4,9.405929E-1,-2.117895E2,-1.0832002E6,1.4877999E7,4.6665E3,-2.2530138E6,8.1671606E2,6.3913716E-3,1.9118194E7,1.293683E-1,8.4871606E2,3.8882308E-3,1.822854E-2,-2.6807718E-3,2.8381512E-2,-1.1127096E-2,-2.1661574E-3,-2.9533377E-2,2.8139738E-2,1.45882955E-2,8.6283404E-4,-1.666507E-2,7.714229E-3,3.5509313E-4,-1.4885929E-2,7.3403083E-3,-6.965975E-3,6.3967356E-3,-7.7263596E-3,-1.1919714E-2,7.4935183E-3,-2.045926E-2,-5.680118E-2,-1.1998288E-2,-3.5119083E-2,-1.3589436E-2,-2.4167685E-2,-4.534034E-2,-1.4093235E-2,-2.0277254E-2,-7.1644075E-2,-3.131013E-2,-8.153118E-2],"split_indices":[4,10,4,7,7,0,0,5,0,3,8,5,7,4,5,0,2,7,8,6,3,0,9,7,6,9,0,10,7,8,0,0,0,0,0,0,0,0,0,0,0,0,0,0,0,0,0,0,0,0,0,0,0,0,0,0,0,0,0,0,0,0,0],"split_type":[0,0,0,0,0,0,0,0,0,0,0,0,0,0,0,0,0,0,0,0,0,0,0,0,0,0,0,0,0,0,0,0,0,0,0,0,0,0,0,0,0,0,0,0,0,0,0,0,0,0,0,0,0,0,0,0,0,0,0,0,0,0,0],"sum_hessian":[6.7909E4,5.3292E4,1.4617E4,2.6396E4,2.6896E4,8.771E3,5.846E3,1.9941E4,6.455E3,1.4874E4,1.2022E4,4.118E3,4.653E3,5.476E3,3.7E2,9.327E3,1.0614E4,6.007E3,4.48E2,7.359E3,7.515E3,4.449E3,7.573E3,1.71E3,2.408E3,1.95E2,4.458E3,5.209E3,2.67E2,4.8E1,3.22E2,8.345E3,9.82E2,1.0514E4,1E2,2.029E3,3.978E3,4.06E2,4.2E1,6.801E3,5.58E2,2.75E2,7.24E3,3.212E3,1.237E3,6.572E3,1.001E3,1.099E3,6.11E2,2.082E3,3.26E2,1.19E2,7.6E1,4.303E3,1.55E2,3.689E3,1.52E3,2.13E2,5.4E1,6E0,4.2E1,3.04E2,1.8E1],"tree_param":{"num_deleted":"0","num_feature":"11","num_nodes":"63","size_leaf_vector":"1"}},{"base_weights":[-9.6893795E-3,5.256008E-2,-2.3663224E-1,-1.2686879E-2,1.1659218E-1,-1.9863233E-1,-4.291363E-1,1.8794179E-2,-1.13872536E-1,1.8074086E-1,3.7216973E-2,-9.598998E-2,-2.529891E-1,-2.56615E-1,-4.9573255E-1,9.289682E-2,-4.661468E-2,-7.7802695E-2,-3.608399E-1,1.2281257E-1,2.3993608E-1,-6.2360875E-2,9.571766E-2,1.6566345E-1,-1.159391E-1,-2.873975E-1,-1.07701354E-1,-1.1090186E-1,-6.291772E-1,-5.29889E-1,4.5684326E-2,5.672207E-3,-1.0184015E-2,1.9539287E-3,-3.9836746E-3,-1.0685942E-2,-9.598583E-4,-5.8920373E-4,-2.4559494E-2,6.9558783E-3,-1.136542E-2,9.219742E-3,1.5896935E-2,7.158456E-4,-1.3065675E-2,6.538588E-3,-6.716429E-3,1.000505E-2,-1.5069634E-2,2.672177E-4,-8.223152E-3,-2.160562E-2,-1.245501E-2,-2.2804923E-2,-7.9569564E-4,-6.6971416E-3,3.6798283E-2,-4.3108232E-2,-2.1523237E-2,-2.455456E-2,-4.2527277E-2,-7.0775785E-3,1.5729496E-2],"categories":[],"categories_nodes":[],"categories_segments":[],"categories_sizes":[],"default_left":[0,0,0,0,0,0,0,0,0,0,0,0,0,0,0,0,0,0,0,0,0,0,0,0,0,0,0,0,0,0,0,0,0,0,0,0,0,0,0,0,0,0,0,0,0,0,0,0,0,0,0,0,0,0,0,0,0,0,0,0,0,0,0],"id":17,"left_children":[1,3,5,7,9,11,13,15,17,19,21,23,25,27,29,31,33,35,37,39,41,43,45,47,49,51,53,55,57,59,61,-1,-1,-1,-1,-1,-1,-1,-1,-1,-1,-1,-1,-1,-1,-1,-1,-1,-1,-1,-1,-1,-1,-1,-1,-1,-1,-1,-1,-1,-1,-1,-1],"loss_changes":[9.5938184E2,2.226543E2,1.0684735E2,8.4087975E1,1.3694785E2,6.809906E1,2.7550446E1,9.7593216E1,5.5772102E1,5.097809E1,7.0044426E1,2.2093552E1,3.987201E1,3.646552E1,3.214633E1,5.7549194E1,3.030116E1,4.354295E1,3.630275E1,4.296119E1,3.1810211E1,6.7889595E1,6.109478E1,4.8855906E0,2.3129524E1,3.5656128E1,4.8919815E1,9.56221E0,8.379097E0,1.9910522E1,5.2808037E0,0E0,0E0,0E0,0E0,0E0,0E0,0E0,0E0,0E0,0E0,0E0,0E0,0E0,0E0,0E0,0E0,0E0,0E0,0E0,0E0,0E0,0E0,0E0,0E0,0E0,0E0,0E0,0E0,0E0,0E0,0E0,0E0],"parents":[2147483647,0,0,1,1,2,2,3,3,4,4,5,5,6,6,7,7,8,8,9,9,10,10,11,11,12,12,13,13,14,14,15,15,16,16,17,17,18,18,19,19,20,20,21,21,22,22,23,23,24,24,25,25,26,26,27,27,28,28,29,29,30,30],"right_children":[2,4,6,8,10,12,14,16,18,20,22,24,26,28,30,32,34,36,38,40,42,44,46,48,50,52,54,56,58,60,62,-1,-1,-1,-1,-1,-1,-1,-1,-1,-1,-1,-1,-1,-1,-1,-1,-1,-1,-1,-1,-1,-1,-1,-1,-1,-1,-1,-1,-1,-1,-1,-1],"split_conditions":[2.7813116E2,4.687189E-3,2.8326068E2,1.8036852E7,3.884885E6,-5.01737E2,-5.701668E2,1.5184369E5,5.6181942E1,8.3549805E-3,6.612213E-1,8.991329E-1,-3.86718E5,9.909458E-1,6.0632215E0,9.880383E-1,8.9324385E-1,1.996672E7,2.7272534E2,1.2188112E6,5.522784E5,-2.117895E2,-1.0832002E6,-5.087895E2,2.7973676E2,8.495035E-1,2.7732681E-3,2.16224E7,-5.59445E6,2.860771E2,9.66867E-1,5.672207E-3,-1.0184015E-2,1.9539287E-3,-3.9836746E-3,-1.0685942E-2,-9.598583E-4,-5.8920373E-4,-2.4559494E-2,6.9558783E-3,-1.136542E-2,9.219742E-3,1.5896935E-2,7.158456E-4,-1.3065675E-2,6.538588E-3,-6.716429E-3,1.000505E-2,-1.5069634E-2,2.672177E-4,-8.223152E-3,-2.160562E-2,-1.245501E-2,-2.2804923E-2,-7.9569564E-4,-6.6971416E-3,3.6798283E-2,-4.3108232E-2,-2.1523237E-2,-2.455456E-2,-4.2527277E-2,-7.0775785E-3,1.5729496E-2],"split_indices":[4,10,4,7,7,0,0,5,0,10,8,3,6,3,1,3,3,7,4,5,5,0,9,0,4,3,10,7,6,4,3,0,0,0,0,0,0,0,0,0,0,0,0,0,0,0,0,0,0,0,0,0,0,0,0,0,0,0,0,0,0,0,0],"split_type":[0,0,0,0,0,0,0,0,0,0,0,0,0,0,0,0,0,0,0,0,0,0,0,0,0,0,0,0,0,0,0,0,0,0,0,0,0,0,0,0,0,0,0,0,0,0,0,0,0,0,0,0,0,0,0,0,0,0,0,0,0,0,0],"sum_hessian":[6.7909E4,5.3292E4,1.4617E4,2.6396E4,2.6896E4,1.2209E4,2.408E3,2.0133E4,6.263E3,1.4874E4,1.2022E4,4.228E3,7.981E3,6.72E2,1.736E3,9.439E3,1.0694E4,5.466E3,7.97E2,7.519E3,7.355E3,4.449E3,7.573E3,2.99E2,3.929E3,6.452E3,1.529E3,4.84E2,1.88E2,1.633E3,1.03E2,8.828E3,6.11E2,2.977E3,7.717E3,1.646E3,3.82E3,2.17E2,5.8E2,7.185E3,3.34E2,4.298E3,3.057E3,3.212E3,1.237E3,6.572E3,1.001E3,2.79E2,2E1,1.123E3,2.806E3,1.348E3,5.104E3,3.18E2,1.211E3,4.72E2,1.2E1,8.5E1,1.03E2,1.459E3,1.74E2,6.1E1,4.2E1],"tree_param":{"num_deleted":"0","num_feature":"11","num_nodes":"63","size_leaf_vector":"1"}},{"base_weights":[-8.485624E-3,4.3876126E-2,-2.2411169E-1,-2.1903109E-2,9.6835315E-2,-1.9015306E-1,-4.0171096E-1,1.1840151E-2,-1.22101635E-1,1.5530805E-1,3.415389E-2,-1.2910515E-1,-2.8253606E-1,-3.636632E-1,-6.558372E-1,3.1783086E-1,-3.454781E-3,3.998435E-2,-1.845752E-1,2.5932685E-1,1.2186816E-1,7.7391975E-2,-5.377453E-2,-4.9231896E-1,-1.1602118E-1,-3.807597E-2,-3.2438913E-1,-3.874095E-1,4.801282E-2,-1.1867265E0,-5.712591E-1,1.678373E-2,-9.62451E-2,-2.539827E-3,3.8654997E-3,-8.11326E-3,5.598348E-3,-7.539676E-3,-3.0270625E-2,2.0033062E-2,7.7104787E-3,9.7957635E-3,1.823767E-3,1.6257804E-2,3.1322655E-3,-7.288163E-3,7.159538E-3,-4.4658482E-2,-1.21442145E-2,-2.434125E-3,-9.910493E-3,1.8580563E-2,-6.5856585E-3,-1.9223852E-2,-9.321373E-3,-1.1683544E-2,-2.2497607E-2,1.4011924E-2,-7.0119845E-3,-1.07002575E-2,-6.490736E-2,-3.3429068E-2,-1.8160241E-3],"categories":[],"categories_nodes":[],"categories_segments":[],"categories_sizes":[],"default_left":[0,0,0,0,0,0,0,0,0,0,0,0,0,0,0,0,0,0,0,0,0,0,0,0,0,0,0,0,0,0,0,0,0,0,0,0,0,0,0,0,0,0,0,0,0,0,0,0,0,0,0,0,0,0,0,0,0,0,0,0,0,0,0],"id":18,"left_children":[1,3,5,7,9,11,13,15,17,19,21,23,25,27,29,31,33,35,37,39,41,43,45,47,49,51,53,55,57,59,61,-1,-1,-1,-1,-1,-1,-1,-1,-1,-1,-1,-1,-1,-1,-1,-1,-1,-1,-1,-1,-1,-1,-1,-1,-1,-1,-1,-1,-1,-1,-1,-1],"loss_changes":[7.667516E2,1.903538E2,7.994928E1,8.240378E1,1.10942566E2,6.2796417E1,2.034665E1,8.533349E1,6.2181564E1,5.4443268E1,5.5553085E1,3.183065E1,4.5333252E1,1.814293E1,1.171492E1,3.53824E1,6.640363E1,2.4898561E1,6.291664E1,5.6527313E1,7.4940475E1,3.5767567E1,8.72981E1,2.3079823E1,3.5842697E1,2.4945864E1,3.1297028E1,1.6750305E1,4.4984403E0,3.732296E0,1.2470444E1,0E0,0E0,0E0,0E0,0E0,0E0,0E0,0E0,0E0,0E0,0E0,0E0,0E0,0E0,0E0,0E0,0E0,0E0,0E0,0E0,0E0,0E0,0E0,0E0,0E0,0E0,0E0,0E0,0E0,0E0,0E0,0E0],"parents":[2147483647,0,0,1,1,2,2,3,3,4,4,5,5,6,6,7,7,8,8,9,9,10,10,11,11,12,12,13,13,14,14,15,15,16,16,17,17,18,18,19,19,20,20,21,21,22,22,23,23,24,24,25,25,26,26,27,27,28,28,29,29,30,30],"right_children":[2,4,6,8,10,12,14,16,18,20,22,24,26,28,30,32,34,36,38,40,42,44,46,48,50,52,54,56,58,60,62,-1,-1,-1,-1,-1,-1,-1,-1,-1,-1,-1,-1,-1,-1,-1,-1,-1,-1,-1,-1,-1,-1,-1,-1,-1,-1,-1,-1,-1,-1,-1,-1],"split_conditions":[2.78595E2,4.2127697E-3,2.834125E2,1.8036852E7,3.884885E6,-3.437895E2,2.860771E2,6.9348174E-1,2.731558E2,8.9324385E-1,-2.447895E2,6.327439E6,3.573938E-2,5.940708E0,8.7073046E-1,4.178849E-3,2.6723676E2,1.996672E7,7.0771606E2,-2.381668E2,-4.197895E2,8.6227775E-1,7.936256E-1,1.277047E-2,2.8142053E2,-2.0401708E6,-9.09329E5,-5.701668E2,-3.8986588E6,7.3914057E-1,1.9284086E7,1.678373E-2,-9.62451E-2,-2.539827E-3,3.8654997E-3,-8.11326E-3,5.598348E-3,-7.539676E-3,-3.0270625E-2,2.0033062E-2,7.7104787E-3,9.7957635E-3,1.823767E-3,1.6257804E-2,3.1322655E-3,-7.288163E-3,7.159538E-3,-4.4658482E-2,-1.21442145E-2,-2.434125E-3,-9.910493E-3,1.8580563E-2,-6.5856585E-3,-1.9223852E-2,-9.321373E-3,-1.1683544E-2,-2.2497607E-2,1.4011924E-2,-7.0119845E-3,-1.07002575E-2,-6.490736E-2,-3.3429068E-2,-1.8160241E-3],"split_indices":[4,10,4,7,7,0,4,3,4,3,0,7,2,1,3,10,4,7,0,0,0,3,8,10,4,9,6,0,9,3,7,0,0,0,0,0,0,0,0,0,0,0,0,0,0,0,0,0,0,0,0,0,0,0,0,0,0,0,0,0,0,0,0],"split_type":[0,0,0,0,0,0,0,0,0,0,0,0,0,0,0,0,0,0,0,0,0,0,0,0,0,0,0,0,0,0,0,0,0,0,0,0,0,0,0,0,0,0,0,0,0,0,0,0,0,0,0,0,0,0,0,0,0,0,0,0,0,0,0],"sum_hessian":[6.7909E4,5.4641E4,1.3268E4,2.4371E4,3.027E4,1.114E4,2.128E3,1.8232E4,6.139E3,1.566E4,1.461E4,6.709E3,4.431E3,1.853E3,2.75E2,8.67E2,1.7365E4,1.708E3,4.431E3,3.808E3,1.1852E4,9.794E3,4.816E3,2.32E2,6.477E3,6.48E2,3.783E3,1.752E3,1.01E2,3.6E1,2.39E2,8.61E2,6E0,1.0948E4,6.417E3,4.48E2,1.26E3,4.103E3,3.28E2,1.623E3,2.185E3,6.347E3,5.505E3,5.49E2,9.245E3,3.283E3,1.533E3,8.8E1,1.44E2,3.561E3,2.916E3,1.2E2,5.28E2,2.634E3,1.149E3,5.08E2,1.244E3,4.5E1,5.6E1,4E0,3.2E1,2.02E2,3.7E1],"tree_param":{"num_deleted":"0","num_feature":"11","num_nodes":"63","size_leaf_vector":"1"}},{"base_weights":[-7.415458E-3,3.9839737E-2,-2.0201272E-1,-1.766714E-2,8.613876E-2,-1.6783743E-1,-3.5600847E-1,-4.100658E-3,-2.2105488E-1,1.038319E-1,-8.2820676E-2,-1.0261343E-1,-2.2549602E-1,-3.7365687E-1,1.0288367E-1,1.7088814E-1,-2.3932068E-2,-1.2347189E-1,-5.1657504E-1,4.788473E-3,1.397588E-1,5.1393644E-3,-4.9774998E-1,-4.890349E-2,-1.8843679E-1,-2.6745194E-1,-1.0409069E-1,-2.324494E-1,-4.3834177E-1,2.1665135E-1,-3.642232E-1,2.2826523E-2,6.1800387E-3,2.6536637E-4,-6.517123E-3,-1.1905906E-2,-1.0543959E-3,4.4768574E-3,-2.9229019E-2,2.6505063E-3,-6.946601E-3,5.9024706E-3,1.4133597E-2,9.822983E-3,-3.8511497E-3,-2.6847163E-2,3.7770462E-3,5.581905E-3,-5.0363624E-3,-1.11106E-2,3.8644378E-3,-1.0717172E-2,-1.9133816E-2,2.0645041E-2,-6.8314574E-3,-6.1975387E-3,-2.7370945E-2,-3.9620217E-2,-2.0233976E-2,1.4667268E-2,-2.7418513E-2,-4.0267583E-2,-5.145681E-4],"categories":[],"categories_nodes":[],"categories_segments":[],"categories_sizes":[],"default_left":[0,0,0,0,0,0,0,0,0,0,0,0,0,0,0,0,0,0,0,0,0,0,0,0,0,0,0,0,0,0,0,0,0,0,0,0,0,0,0,0,0,0,0,0,0,0,0,0,0,0,0,0,0,0,0,0,0,0,0,0,0,0,0],"id":19,"left_children":[1,3,5,7,9,11,13,15,17,19,21,23,25,27,29,31,33,35,37,39,41,43,45,47,49,51,53,55,57,59,61,-1,-1,-1,-1,-1,-1,-1,-1,-1,-1,-1,-1,-1,-1,-1,-1,-1,-1,-1,-1,-1,-1,-1,-1,-1,-1,-1,-1,-1,-1,-1,-1],"loss_changes":[6.244901E2,1.4548653E2,6.977301E1,6.7247696E1,9.0501434E1,4.0822083E1,1.9548248E1,7.9296394E1,4.3884933E1,9.7504486E1,1.0474952E2,2.349036E1,2.9332092E1,2.1088959E1,4.8616595E0,3.136148E1,6.3858555E1,1.3458393E1,1.5633064E1,5.0564922E1,6.2352844E1,3.725422E1,1.1320068E1,2.6110672E1,1.7626E1,2.612738E1,2.498678E1,2.491317E1,1.8629822E1,4.4439607E0,2.8020408E0,0E0,0E0,0E0,0E0,0E0,0E0,0E0,0E0,0E0,0E0,0E0,0E0,0E0,0E0,0E0,0E0,0E0,0E0,0E0,0E0,0E0,0E0,0E0,0E0,0E0,0E0,0E0,0E0,0E0,0E0,0E0,0E0],"parents":[2147483647,0,0,1,1,2,2,3,3,4,4,5,5,6,6,7,7,8,8,9,9,10,10,11,11,12,12,13,13,14,14,15,15,16,16,17,17,18,18,19,19,20,20,21,21,22,22,23,23,24,24,25,25,26,26,27,27,28,28,29,29,30,30],"right_children":[2,4,6,8,10,12,14,16,18,20,22,24,26,28,30,32,34,36,38,40,42,44,46,48,50,52,54,56,58,60,62,-1,-1,-1,-1,-1,-1,-1,-1,-1,-1,-1,-1,-1,-1,-1,-1,-1,-1,-1,-1,-1,-1,-1,-1,-1,-1,-1,-1,-1,-1,-1,-1],"split_conditions":[2.78595E2,4.2127697E-3,2.8326068E2,9.880383E-1,9.880383E-1,-4.21737E2,6.0962076E0,4.335631E-2,-3.067895E2,6.612213E-1,-3.067895E2,1.5416339E-1,-6.68831E5,-5.67404E2,1.980061E-1,9.4842607E-1,3.1493606E5,2.367803E0,2.3868464E-2,-2.381668E2,1.1338613E-2,-6.949264E2,9.9612427E-1,9.524527E-1,1.427995E0,3.5364807E0,-6.00409E5,9.909458E-1,1.2669479E7,9.8148894E-1,-5.59445E6,2.2826523E-2,6.1800387E-3,2.6536637E-4,-6.517123E-3,-1.1905906E-2,-1.0543959E-3,4.4768574E-3,-2.9229019E-2,2.6505063E-3,-6.946601E-3,5.9024706E-3,1.4133597E-2,9.822983E-3,-3.8511497E-3,-2.6847163E-2,3.7770462E-3,5.581905E-3,-5.0363624E-3,-1.11106E-2,3.8644378E-3,-1.0717172E-2,-1.9133816E-2,2.0645041E-2,-6.8314574E-3,-6.1975387E-3,-2.7370945E-2,-3.9620217E-2,-2.0233976E-2,1.4667268E-2,-2.7418513E-2,-4.0267583E-2,-5.145681E-4],"split_indices":[4,10,4,3,3,0,1,2,0,8,0,2,6,0,2,3,5,1,2,0,10,0,3,3,1,1,6,3,7,3,6,0,0,0,0,0,0,0,0,0,0,0,0,0,0,0,0,0,0,0,0,0,0,0,0,0,0,0,0,0,0,0,0],"split_type":[0,0,0,0,0,0,0,0,0,0,0,0,0,0,0,0,0,0,0,0,0,0,0,0,0,0,0,0,0,0,0,0,0,0,0,0,0,0,0,0,0,0,0,0,0,0,0,0,0,0,0,0,0,0,0,0,0,0,0,0,0,0,0],"sum_hessian":[6.7909E4,5.4641E4,1.3268E4,2.4371E4,3.027E4,1.086E4,2.408E3,2.2848E4,1.523E3,2.7401E4,2.869E3,5.097E3,5.763E3,2.319E3,8.9E1,2.325E3,2.0523E4,1.146E3,3.77E2,7.294E3,2.0107E4,2.368E3,5.01E2,3.136E3,1.961E3,4.282E3,1.481E3,7.3E2,1.589E3,7.2E1,1.7E1,3.29E2,1.996E3,1.61E4,4.423E3,5.4E2,6.06E2,3.8E1,3.39E2,5.462E3,1.832E3,1.7457E4,2.65E3,7.11E2,1.657E3,4.69E2,3.2E1,7.65E2,2.371E3,1.74E3,2.21E2,2.933E3,1.349E3,8.7E1,1.394E3,5.44E2,1.86E2,1.36E2,1.453E3,6.6E1,6E0,7E0,1E1],"tree_param":{"num_deleted":"0","num_feature":"11","num_nodes":"63","size_leaf_vector":"1"}},{"base_weights":[-5.6780498E-3,3.7176415E-2,-1.8215314E-1,-1.482246E-2,7.9040885E-2,-1.2217243E-1,-2.582699E-1,1.1440138E-2,-9.2807986E-2,-2.1077028E-2,1.0164286E-1,-4.7185647E-1,-1.0809348E-1,-2.3887491E-1,-5.438979E-1,8.302215E-2,-4.302689E-2,-5.3647075E-2,-3.1869048E-1,-1.667072E-1,4.41992E-2,1.7159967E-1,5.735576E-2,-8.466376E-1,-1.5170924E-1,1.0750751E-2,-1.5053505E-1,-2.0484051E-1,-3.8370854E-1,-1.0221666E0,-4.696593E-1,2.9464222E-3,1.3941519E-2,-2.4115967E-3,2.3277177E-2,2.7464228E-3,-5.312841E-3,-1.3687913E-2,-5.1169164E-2,-4.116374E-3,-1.6535921E-2,9.794348E-4,1.5336323E-2,7.911534E-3,2.5914801E-2,3.4289758E-3,-1.3485036E-2,-1.7615926E-2,-4.8816793E-2,-1.5113968E-3,-3.1075237E-2,4.1236817E-3,-4.576304E-3,-5.1402384E-3,-1.1071934E-2,-6.588252E-3,-1.5310106E-2,-2.6122272E-2,-1.1799389E-2,-1.058874E-2,-5.651598E-2,-2.0918624E-2,-6.3411444E-2],"categories":[],"categories_nodes":[],"categories_segments":[],"categories_sizes":[],"default_left":[0,0,0,0,0,0,0,0,0,0,0,0,0,0,0,0,0,0,0,0,0,0,0,0,0,0,0,0,0,0,0,0,0,0,0,0,0,0,0,0,0,0,0,0,0,0,0,0,0,0,0,0,0,0,0,0,0,0,0,0,0,0,0],"id":20,"left_children":[1,3,5,7,9,11,13,15,17,19,21,23,25,27,29,31,33,35,37,39,41,43,45,47,49,51,53,55,57,59,61,-1,-1,-1,-1,-1,-1,-1,-1,-1,-1,-1,-1,-1,-1,-1,-1,-1,-1,-1,-1,-1,-1,-1,-1,-1,-1,-1,-1,-1,-1,-1,-1],"loss_changes":[5.135928E2,1.1895164E2,6.0548553E1,4.991742E1,6.850125E1,3.649379E1,3.2260986E1,7.109148E1,5.4295887E1,5.3013878E1,7.650293E1,3.430729E1,3.60002E1,2.6919312E1,1.2692665E1,3.7154686E1,2.743348E1,2.9903126E1,2.8438545E1,2.3859257E1,2.4875025E1,4.4288666E1,5.553571E1,8.118851E0,8.884347E0,1.3791121E1,1.777501E1,3.2824722E1,2.1211304E1,4.05529E0,1.2698227E1,0E0,0E0,0E0,0E0,0E0,0E0,0E0,0E0,0E0,0E0,0E0,0E0,0E0,0E0,0E0,0E0,0E0,0E0,0E0,0E0,0E0,0E0,0E0,0E0,0E0,0E0,0E0,0E0,0E0,0E0,0E0,0E0],"parents":[2147483647,0,0,1,1,2,2,3,3,4,4,5,5,6,6,7,7,8,8,9,9,10,10,11,11,12,12,13,13,14,14,15,15,16,16,17,17,18,18,19,19,20,20,21,21,22,22,23,23,24,24,25,25,26,26,27,27,28,28,29,29,30,30],"right_children":[2,4,6,8,10,12,14,16,18,20,22,24,26,28,30,32,34,36,38,40,42,44,46,48,50,52,54,56,58,60,62,-1,-1,-1,-1,-1,-1,-1,-1,-1,-1,-1,-1,-1,-1,-1,-1,-1,-1,-1,-1,-1,-1,-1,-1,-1,-1,-1,-1,-1,-1,-1,-1],"split_conditions":[2.78595E2,4.2127697E-3,2.8151392E2,1.8036852E7,-1.8979188E5,6.327439E6,-8.8818054E1,1.3853881E5,-2.2008552E6,7.8671155E6,9.2919886E-1,1.277047E-2,-5.18404E2,2.8416785E2,-2.098402E6,3.227161E2,3.2060605E-1,2.731558E2,7.0771606E2,7.0149395E6,2.0050274E7,6.0632215E0,-1.317543E2,5.16777E-2,1.54848E5,1.5245071E7,6.139432E-1,5.514198E-3,-5.401439E6,1.293683E-1,8.4871606E2,2.9464222E-3,1.3941519E-2,-2.4115967E-3,2.3277177E-2,2.7464228E-3,-5.312841E-3,-1.3687913E-2,-5.1169164E-2,-4.116374E-3,-1.6535921E-2,9.794348E-4,1.5336323E-2,7.911534E-3,2.5914801E-2,3.4289758E-3,-1.3485036E-2,-1.7615926E-2,-4.8816793E-2,-1.5113968E-3,-3.1075237E-2,4.1236817E-3,-4.576304E-3,-5.1402384E-3,-1.1071934E-2,-6.588252E-3,-1.5310106E-2,-2.6122272E-2,-1.1799389E-2,-1.058874E-2,-5.651598E-2,-2.0918624E-2,-6.3411444E-2],"split_indices":[4,10,4,7,5,7,0,5,9,7,3,10,0,4,5,0,2,4,0,7,7,1,0,2,5,7,8,10,6,8,0,0,0,0,0,0,0,0,0,0,0,0,0,0,0,0,0,0,0,0,0,0,0,0,0,0,0,0,0,0,0,0,0],"split_type":[0,0,0,0,0,0,0,0,0,0,0,0,0,0,0,0,0,0,0,0,0,0,0,0,0,0,0,0,0,0,0,0,0,0,0,0,0,0,0,0,0,0,0,0,0,0,0,0,0,0,0,0,0,0,0,0,0,0,0,0,0,0,0],"sum_hessian":[6.7909E4,5.4641E4,1.3268E4,2.4371E4,3.027E4,7.422E3,5.846E3,1.8232E4,6.139E3,5.575E3,2.4695E4,2.86E2,7.136E3,5.476E3,3.7E2,7.878E3,1.0354E4,5.233E3,9.06E2,1.725E3,3.85E3,9.572E3,1.5123E4,1.31E2,1.55E2,1.878E3,5.258E3,4.436E3,1.04E3,4.8E1,3.22E2,7.016E3,8.62E2,1.025E4,1.04E2,1.708E3,3.525E3,8.53E2,5.3E1,1.14E3,5.85E2,3.521E3,3.29E2,9.218E3,3.54E2,1.4622E4,5.01E2,2.8E1,1.03E2,1.24E2,3.1E1,1.104E3,7.74E2,3.144E3,2.114E3,2.579E3,1.857E3,5.35E2,5.05E2,6E0,4.2E1,3.04E2,1.8E1],"tree_param":{"num_deleted":"0","num_feature":"11","num_nodes":"63","size_leaf_vector":"1"}},{"base_weights":[-5.1202355E-3,2.6720427E-2,-1.934533E-1,-2.7553305E-2,5.5957638E-2,-1.4692646E-1,-2.8678963E-1,1.5930769E-1,-3.7234597E-2,8.711365E-2,-1.2735248E-2,-1.2023636E-1,-3.3015242E-1,-5.233828E-2,-3.2317868E-1,2.2379798E-1,-2.6374388E-1,-2.5938347E-2,-3.088524E-1,6.84326E-2,2.2113466E-1,3.6291532E-2,-1.21701024E-1,-7.282194E-2,-2.0903043E-1,-4.5770764E-1,-1.6929899E-1,1.9846636E-1,-1.5138336E-1,-2.550868E-1,-4.6224263E-1,1.3144806E-2,-1.0659564E-2,3.0941922E-2,-1.7026488E-2,-2.3985583E-4,-5.165851E-3,-5.837602E-3,-2.6081419E-2,6.3537173E-3,1.6247168E-3,1.4156105E-2,5.406452E-3,1.3049081E-2,1.301187E-3,-3.5026323E-3,-1.5183103E-2,6.406776E-3,-4.811859E-3,-6.9899717E-3,-1.8100323E-2,-2.5317961E-2,1.9068E-2,-1.0505095E-2,1.58866E-2,-6.456436E-2,1.2919311E-2,-1.0504864E-2,8.641769E-3,-7.924778E-3,-2.0068146E-2,-3.4767132E-2,-1.4747562E-2],"categories":[],"categories_nodes":[],"categories_segments":[],"categories_sizes":[],"default_left":[0,0,0,0,0,0,0,0,0,0,0,0,0,0,0,0,0,0,0,0,0,0,0,0,0,0,0,0,0,0,0,0,0,0,0,0,0,0,0,0,0,0,0,0,0,0,0,0,0,0,0,0,0,0,0,0,0,0,0,0,0,0,0],"id":21,"left_children":[1,3,5,7,9,11,13,15,17,19,21,23,25,27,29,31,33,35,37,39,41,43,45,47,49,51,53,55,57,59,61,-1,-1,-1,-1,-1,-1,-1,-1,-1,-1,-1,-1,-1,-1,-1,-1,-1,-1,-1,-1,-1,-1,-1,-1,-1,-1,-1,-1,-1,-1,-1,-1],"loss_changes":[4.072376E2,9.2179474E1,4.2606964E1,3.679851E1,8.079994E1,3.2021255E1,2.7846832E1,2.7396309E1,5.9322983E1,6.501224E1,6.294136E1,2.4083504E1,1.7013756E1,1.0960069E1,2.6651306E1,1.4920414E1,9.224121E0,3.0371262E1,3.1494095E1,4.8040146E1,2.222403E1,1.8740463E1,3.4337788E1,1.7577843E1,2.1046028E1,1.9134506E1,7.4195013E0,1.1491877E1,6.0517373E0,2.6781464E1,3.598285E1,0E0,0E0,0E0,0E0,0E0,0E0,0E0,0E0,0E0,0E0,0E0,0E0,0E0,0E0,0E0,0E0,0E0,0E0,0E0,0E0,0E0,0E0,0E0,0E0,0E0,0E0,0E0,0E0,0E0,0E0,0E0,0E0],"parents":[2147483647,0,0,1,1,2,2,3,3,4,4,5,5,6,6,7,7,8,8,9,9,10,10,11,11,12,12,13,13,14,14,15,15,16,16,17,17,18,18,19,19,20,20,21,21,22,22,23,23,24,24,25,25,26,26,27,27,28,28,29,29,30,30],"right_children":[2,4,6,8,10,12,14,16,18,20,22,24,26,28,30,32,34,36,38,40,42,44,46,48,50,52,54,56,58,60,62,-1,-1,-1,-1,-1,-1,-1,-1,-1,-1,-1,-1,-1,-1,-1,-1,-1,-1,-1,-1,-1,-1,-1,-1,-1,-1,-1,-1,-1,-1,-1,-1],"split_conditions":[2.798552E2,3.6308542E-3,-3.437895E2,-1.111787E6,2.73943E2,2.8416785E2,3.6324933E-2,3.4851357E-3,2.7813116E2,1.1516819E-2,-2.397895E2,6.433415E-3,-5.401439E6,6.055993E-1,3.494518E0,2.8475434E-1,7.779505E6,3.1493606E5,-1.9213958E6,9.2794496E-1,-1.10992E6,-3.146576E6,6.7941267E-3,8.7876487E-1,-8.408739E5,1.9465798E7,7.1252165E-3,8.410616E-1,1.1665006E5,1.7629308E-1,4.6643243E0,1.3144806E-2,-1.0659564E-2,3.0941922E-2,-1.7026488E-2,-2.3985583E-4,-5.165851E-3,-5.837602E-3,-2.6081419E-2,6.3537173E-3,1.6247168E-3,1.4156105E-2,5.406452E-3,1.3049081E-2,1.301187E-3,-3.5026323E-3,-1.5183103E-2,6.406776E-3,-4.811859E-3,-6.9899717E-3,-1.8100323E-2,-2.5317961E-2,1.9068E-2,-1.0505095E-2,1.58866E-2,-6.456436E-2,1.2919311E-2,-1.0504864E-2,8.641769E-3,-7.924778E-3,-2.0068146E-2,-3.4767132E-2,-1.4747562E-2],"split_indices":[4,10,0,6,4,4,2,10,4,10,0,10,6,8,1,2,7,5,9,3,9,6,10,3,5,7,10,3,5,2,1,0,0,0,0,0,0,0,0,0,0,0,0,0,0,0,0,0,0,0,0,0,0,0,0,0,0,0,0,0,0,0,0],"split_type":[0,0,0,0,0,0,0,0,0,0,0,0,0,0,0,0,0,0,0,0,0,0,0,0,0,0,0,0,0,0,0,0,0,0,0,0,0,0,0,0,0,0,0,0,0,0,0,0,0,0,0,0,0,0,0,0,0,0,0,0,0,0,0],"sum_hessian":[6.7909E4,5.8089E4,9.82E3,2.0337E4,3.7752E4,6.555E3,3.265E3,1.001E3,1.9336E4,2.5972E4,1.178E4,5.723E3,8.32E2,4.39E2,2.826E3,8.69E2,1.32E2,1.8565E4,7.71E2,2.2796E4,3.176E3,8.125E3,3.655E3,3.732E3,1.991E3,4.63E2,3.69E2,1.24E2,3.15E2,1.899E3,9.27E2,7.98E2,7.1E1,1E1,1.22E2,1.4582E4,3.983E3,4.06E2,3.65E2,8.661E3,1.4135E4,2.05E3,1.126E3,3.54E2,7.771E3,2.848E3,8.07E2,3.89E2,3.343E3,1.372E3,6.19E2,4.38E2,2.5E1,3.41E2,2.8E1,4E0,1.2E2,2.67E2,4.8E1,1.145E3,7.54E2,3.86E2,5.41E2],"tree_param":{"num_deleted":"0","num_feature":"11","num_nodes":"63","size_leaf_vector":"1"}},{"base_weights":[-4.361992E-3,2.4571357E-2,-1.7549872E-1,1.6393812E-2,1.8483962E-1,-1.3567266E-1,-2.5538978E-1,-7.4514598E-3,6.732214E-2,1.685812E-1,8.7135273E-1,-1.1085095E-1,-3.060734E-1,-2.7364928E-2,-2.8504723E-1,1.2160229E-1,-2.295658E-2,-1.6639489E-1,8.6004496E-2,2.0307243E-1,-8.647433E-2,9.9853E-1,-3.092022E-2,-6.728758E-2,-1.9243288E-1,-4.218223E-1,-1.6009079E-1,-2.4751177E-1,8.021607E-2,-4.269462E-1,-2.3330705E-1,1.5638834E-2,-6.5388693E-4,1.0005002E-4,-3.656674E-3,-9.450107E-3,3.0673513E-2,3.1221674E-3,1.2126914E-2,5.433947E-3,1.5299524E-2,1.3412937E-2,-1.2352577E-2,4.3367025E-2,7.341459E-2,-1.859391E-2,3.8747754E-2,-3.5772845E-3,4.3384742E-2,-6.483845E-3,-1.6554834E-2,-2.335037E-2,1.7866708E-2,-9.9075725E-3,1.4714149E-2,-1.9356573E-2,7.570308E-4,-5.9557248E-2,5.2661216E-3,-1.5091978E-2,-3.0651098E-2,6.641384E-2,-1.2478157E-2],"categories":[],"categories_nodes":[],"categories_segments":[],"categories_sizes":[],"default_left":[0,0,0,0,0,0,0,0,0,0,0,0,0,0,0,0,0,0,0,0,0,0,0,0,0,0,0,0,0,0,0,0,0,0,0,0,0,0,0,0,0,0,0,0,0,0,0,0,0,0,0,0,0,0,0,0,0,0,0,0,0,0,0],"id":22,"left_children":[1,3,5,7,9,11,13,15,17,19,21,23,25,27,29,31,33,35,37,39,41,43,45,47,49,51,53,55,57,59,61,-1,-1,-1,-1,-1,-1,-1,-1,-1,-1,-1,-1,-1,-1,-1,-1,-1,-1,-1,-1,-1,-1,-1,-1,-1,-1,-1,-1,-1,-1,-1,-1],"loss_changes":[3.362647E2,7.6129776E1,3.1213257E1,6.71216E1,3.1328857E1,2.769558E1,2.2078964E1,7.5332214E1,7.6976204E1,2.426258E1,7.4895363E0,2.0330055E1,1.400795E1,8.948579E0,2.1118408E1,1.0397199E2,4.2088493E1,2.3123901E1,6.018229E1,2.3554268E1,1.8806787E1,2.239273E0,2.7611156E0,1.4924135E1,1.7291412E1,1.6502563E1,6.4570074E0,4.55312E0,8.232943E0,1.7763336E1,5.414824E1,0E0,0E0,0E0,0E0,0E0,0E0,0E0,0E0,0E0,0E0,0E0,0E0,0E0,0E0,0E0,0E0,0E0,0E0,0E0,0E0,0E0,0E0,0E0,0E0,0E0,0E0,0E0,0E0,0E0,0E0,0E0,0E0],"parents":[2147483647,0,0,1,1,2,2,3,3,4,4,5,5,6,6,7,7,8,8,9,9,10,10,11,11,12,12,13,13,14,14,15,15,16,16,17,17,18,18,19,19,20,20,21,21,22,22,23,23,24,24,25,25,26,26,27,27,28,28,29,29,30,30],"right_children":[2,4,6,8,10,12,14,16,18,20,22,24,26,28,30,32,34,36,38,40,42,44,46,48,50,52,54,56,58,60,62,-1,-1,-1,-1,-1,-1,-1,-1,-1,-1,-1,-1,-1,-1,-1,-1,-1,-1,-1,-1,-1,-1,-1,-1,-1,-1,-1,-1,-1,-1,-1,-1],"split_conditions":[2.798552E2,1.277047E-2,-3.437895E2,8.1196177E-1,7.779505E6,2.8416785E2,3.4287628E-2,-5.953479E2,6.9621193E-1,2.7551517E2,2.6585135E2,6.433415E-3,-5.401439E6,1.6141894E0,-2.847895E2,9.7187144E-1,-2.412839E2,2.7901852E-1,4.9973383E0,2.701663E2,-2.2665568E6,9.7654134E-1,-4.227895E2,6.2790656E0,-8.408739E5,1.9465798E7,7.1252165E-3,-8.10526E5,8.410616E-1,5.634117E-3,-2.827895E2,1.5638834E-2,-6.5388693E-4,1.0005002E-4,-3.656674E-3,-9.450107E-3,3.0673513E-2,3.1221674E-3,1.2126914E-2,5.433947E-3,1.5299524E-2,1.3412937E-2,-1.2352577E-2,4.3367025E-2,7.341459E-2,-1.859391E-2,3.8747754E-2,-3.5772845E-3,4.3384742E-2,-6.483845E-3,-1.6554834E-2,-2.335037E-2,1.7866708E-2,-9.9075725E-3,1.4714149E-2,-1.9356573E-2,7.570308E-4,-5.9557248E-2,5.2661216E-3,-1.5091978E-2,-3.0651098E-2,6.641384E-2,-1.2478157E-2],"split_indices":[4,10,0,8,7,4,2,0,1,4,4,10,6,1,0,3,0,2,1,4,9,3,0,1,5,7,10,6,3,10,0,0,0,0,0,0,0,0,0,0,0,0,0,0,0,0,0,0,0,0,0,0,0,0,0,0,0,0,0,0,0,0,0],"split_type":[0,0,0,0,0,0,0,0,0,0,0,0,0,0,0,0,0,0,0,0,0,0,0,0,0,0,0,0,0,0,0,0,0,0,0,0,0,0,0,0,0,0,0,0,0,0,0,0,0,0,0,0,0,0,0,0,0,0,0,0,0,0,0],"sum_hessian":[6.7909E4,5.8089E4,9.82E3,5.527E4,2.819E3,6.555E3,3.265E3,3.7645E4,1.7625E4,2.755E3,6.4E1,5.723E3,8.32E2,3.76E2,2.889E3,4.037E3,3.3608E4,1.304E3,1.6321E4,2.427E3,3.28E2,5.6E1,8E0,3.732E3,1.991E3,4.63E2,3.69E2,1.23E2,2.53E2,7.7E2,2.119E3,1.668E3,2.369E3,2.2445E4,1.1163E4,1.268E3,3.6E1,1.4187E4,2.134E3,1.267E3,1.16E3,1.02E2,2.26E2,4.6E1,1E1,6E0,2E0,3.716E3,1.6E1,1.372E3,6.19E2,4.38E2,2.5E1,3.41E2,2.8E1,8E1,4.3E1,4E0,2.49E2,4.62E2,3.08E2,2.1E1,2.098E3],"tree_param":{"num_deleted":"0","num_feature":"11","num_nodes":"63","size_leaf_vector":"1"}},{"base_weights":[-3.7974059E-3,2.7717065E-2,-1.3357432E-1,-1.0388204E-2,6.502773E-2,-8.370519E-2,-1.9686235E-1,7.7736652E-3,-8.188955E-2,5.266809E-2,1.7746131E-1,6.8316394E-3,-1.22859925E-1,-1.810543E-1,-4.2970294E-1,3.5829373E-2,-5.351905E-2,-1.4320476E-2,-1.4741181E-1,4.59811E-2,2.3935264E-1,1.6170147E-1,8.220967E-1,8.257499E-2,-1.6473095E-1,-3.713382E-1,-1.08269215E-1,-1.4401594E-1,-2.772934E-1,-3.744434E-1,-9.664092E-1,1.0412132E-3,9.88204E-3,-1.1382927E-3,-1.4656238E-2,-4.535889E-3,9.818863E-3,3.2092594E-3,-1.1202888E-2,1.6526513E-2,2.0665696E-3,1.8942377E-2,2.4568355E-3,9.505487E-3,-6.140635E-3,-1.7106352E-2,4.5202393E-2,-1.3048681E-2,5.508662E-3,-1.2779327E-2,6.806105E-3,-3.5158668E-2,-4.4087106E-3,1.5470436E-4,-7.183624E-3,-6.210759E-3,-2.0805428E-2,-8.693738E-3,-1.804647E-2,-1.5955316E-2,-3.837585E-2,-5.975684E-2,4.327992E-3],"categories":[],"categories_nodes":[],"categories_segments":[],"categories_sizes":[],"default_left":[0,0,0,0,0,0,0,0,0,0,0,0,0,0,0,0,0,0,0,0,0,0,0,0,0,0,0,0,0,0,0,0,0,0,0,0,0,0,0,0,0,0,0,0,0,0,0,0,0,0,0,0,0,0,0,0,0,0,0,0,0,0,0],"id":23,"left_children":[1,3,5,7,9,11,13,15,17,19,21,23,25,27,29,31,33,35,37,39,41,43,45,47,49,51,53,55,57,59,61,-1,-1,-1,-1,-1,-1,-1,-1,-1,-1,-1,-1,-1,-1,-1,-1,-1,-1,-1,-1,-1,-1,-1,-1,-1,-1,-1,-1,-1,-1,-1,-1],"loss_changes":[2.777455E2,7.7687E1,4.1862045E1,3.5106934E1,3.8357193E1,2.6314976E1,2.1443604E1,3.7075E1,2.4241665E1,3.1043129E1,2.7642723E1,2.9147778E1,1.8747002E1,1.9483032E1,1.0641296E1,3.590598E1,4.987903E1,4.343072E1,4.5100563E1,3.1762547E1,2.2800762E1,2.1603767E1,6.5109177E0,1.4781716E1,1.8813374E1,2.6905598E1,1.9303532E1,2.1267212E1,1.309317E1,7.107109E0,8.29212E0,0E0,0E0,0E0,0E0,0E0,0E0,0E0,0E0,0E0,0E0,0E0,0E0,0E0,0E0,0E0,0E0,0E0,0E0,0E0,0E0,0E0,0E0,0E0,0E0,0E0,0E0,0E0,0E0,0E0,0E0,0E0,0E0],"parents":[2147483647,0,0,1,1,2,2,3,3,4,4,5,5,6,6,7,7,8,8,9,9,10,10,11,11,12,12,13,13,14,14,15,15,16,16,17,17,18,18,19,19,20,20,21,21,22,22,23,23,24,24,25,25,26,26,27,27,28,28,29,29,30,30],"right_children":[2,4,6,8,10,12,14,16,18,20,22,24,26,28,30,32,34,36,38,40,42,44,46,48,50,52,54,56,58,60,62,-1,-1,-1,-1,-1,-1,-1,-1,-1,-1,-1,-1,-1,-1,-1,-1,-1,-1,-1,-1,-1,-1,-1,-1,-1,-1,-1,-1,-1,-1,-1,-1],"split_conditions":[2.78595E2,4.687189E-3,2.8151392E2,3.1493606E5,1.277047E-2,-1.1893764E6,-8.8818054E1,1.770831E7,2.1344736E0,6.0962076E0,7.779505E6,-2.06798E2,6.327439E6,6.3913716E-3,1.996672E7,3.227161E2,-1.9966138E6,-2.8812384E2,5.827382E-2,2.5943283E2,6.165387E0,2.7551517E2,-5.2730554E2,-2.968371E6,-1.4267189E6,1.277047E-2,-5.151668E2,2.860771E2,-5.500508E2,9.1819054E-1,-1.1739742E6,1.0412132E-3,9.88204E-3,-1.1382927E-3,-1.4656238E-2,-4.535889E-3,9.818863E-3,3.2092594E-3,-1.1202888E-2,1.6526513E-2,2.0665696E-3,1.8942377E-2,2.4568355E-3,9.505487E-3,-6.140635E-3,-1.7106352E-2,4.5202393E-2,-1.3048681E-2,5.508662E-3,-1.2779327E-2,6.806105E-3,-3.5158668E-2,-4.4087106E-3,1.5470436E-4,-7.183624E-3,-6.210759E-3,-2.0805428E-2,-8.693738E-3,-1.804647E-2,-1.5955316E-2,-3.837585E-2,-5.975684E-2,4.327992E-3],"split_indices":[4,10,4,5,10,5,0,7,1,1,7,0,7,10,7,0,9,0,2,4,1,4,0,5,5,10,0,4,0,3,9,0,0,0,0,0,0,0,0,0,0,0,0,0,0,0,0,0,0,0,0,0,0,0,0,0,0,0,0,0,0,0,0],"split_type":[0,0,0,0,0,0,0,0,0,0,0,0,0,0,0,0,0,0,0,0,0,0,0,0,0,0,0,0,0,0,0,0,0,0,0,0,0,0,0,0,0,0,0,0,0,0,0,0,0,0,0,0,0,0,0,0,0,0,0,0,0,0,0],"sum_hessian":[6.7909E4,5.4641E4,1.3268E4,2.7033E4,2.7608E4,7.422E3,5.846E3,2.1558E4,5.475E3,2.4875E4,2.733E3,2.241E3,5.181E3,5.476E3,3.7E2,1.4789E4,6.769E3,2.696E3,2.779E3,2.4016E4,8.59E2,2.669E3,6.4E1,1.555E3,6.86E2,2.86E2,4.895E3,3.956E3,1.52E3,3.37E2,3.3E1,1.3535E4,1.254E3,6E3,7.69E2,1.979E3,7.17E2,7.39E2,2.04E3,3.85E2,2.3631E4,4.95E2,3.64E2,2.427E3,2.42E2,4E0,6E1,1.15E2,1.44E3,5.27E2,1.59E2,1.31E2,1.55E2,1.181E3,3.714E3,3.689E3,2.67E2,6.81E2,8.39E2,2.97E2,4E1,2.7E1,6E0],"tree_param":{"num_deleted":"0","num_feature":"11","num_nodes":"63","size_leaf_vector":"1"}},{"base_weights":[-3.3982447E-3,2.0295125E-2,-1.4354125E-1,-3.588157E-2,3.945989E-2,-1.2634167E-1,-2.8162298E-1,2.1196139E-1,-4.669591E-2,-2.5809282E-2,5.812311E-2,-6.020207E-1,-1.2081894E-1,-3.3664572E-1,-1.2560573E-1,2.3697522E-1,-6.862911E-1,-5.4127023E-2,3.1398016E-1,-9.407852E-3,-2.6419684E-1,1.04577325E-1,1.6936786E-2,-8.8185066E-1,-2.2583133E-1,-9.302213E-2,-1.858142E-1,-6.590458E-1,-2.7453277E-1,-7.06892E-2,-8.1261885E-1,1.6815403E-2,4.8839203E-3,-1.0280434E-2,-6.718039E-2,-2.2315218E-3,-1.2426607E-2,1.7522045E-3,2.7642032E-2,-1.5532061E-3,9.744192E-3,-1.0612867E-2,-5.5043746E-2,5.8753286E-3,-4.0942198E-3,2.2283173E-3,-5.3109606E-3,-2.196013E-2,-5.3744406E-2,-5.670292E-3,-4.0193982E-2,-2.5891727E-3,-8.005661E-3,-6.191028E-3,-1.562517E-2,-3.5426326E-2,2.3669805E-2,-1.6107997E-2,1.5390146E-3,-7.7977204E-3,9.97668E-3,4.6860976E-3,-4.5647796E-2],"categories":[],"categories_nodes":[],"categories_segments":[],"categories_sizes":[],"default_left":[0,0,0,0,0,0,0,0,0,0,0,0,0,0,0,0,0,0,0,0,0,0,0,0,0,0,0,0,0,0,0,0,0,0,0,0,0,0,0,0,0,0,0,0,0,0,0,0,0,0,0,0,0,0,0,0,0,0,0,0,0,0,0],"id":24,"left_children":[1,3,5,7,9,11,13,15,17,19,21,23,25,27,29,31,33,35,37,39,41,43,45,47,49,51,53,55,57,59,61,-1,-1,-1,-1,-1,-1,-1,-1,-1,-1,-1,-1,-1,-1,-1,-1,-1,-1,-1,-1,-1,-1,-1,-1,-1,-1,-1,-1,-1,-1,-1,-1],"loss_changes":[2.2549538E2,6.2541878E1,2.3288773E1,3.9616077E1,5.276371E1,2.2874512E1,9.28907E0,1.4048317E1,3.7968964E1,3.765764E1,6.44432E1,1.0327755E1,1.558503E1,1.58993225E1,1.0695145E1,8.296871E0,5.095071E0,2.5604729E1,1.903589E1,3.9881336E1,2.670945E1,3.817032E1,6.076076E1,4.398426E0,2.768279E0,1.6733292E1,2.0271553E1,7.5638046E0,9.825218E0,6.1368785E0,1.9952936E0,0E0,0E0,0E0,0E0,0E0,0E0,0E0,0E0,0E0,0E0,0E0,0E0,0E0,0E0,0E0,0E0,0E0,0E0,0E0,0E0,0E0,0E0,0E0,0E0,0E0,0E0,0E0,0E0,0E0,0E0,0E0,0E0],"parents":[2147483647,0,0,1,1,2,2,3,3,4,4,5,5,6,6,7,7,8,8,9,9,10,10,11,11,12,12,13,13,14,14,15,15,16,16,17,17,18,18,19,19,20,20,21,21,22,22,23,23,24,24,25,25,26,26,27,27,28,28,29,29,30,30],"right_children":[2,4,6,8,10,12,14,16,18,20,22,24,26,28,30,32,34,36,38,40,42,44,46,48,50,52,54,56,58,60,62,-1,-1,-1,-1,-1,-1,-1,-1,-1,-1,-1,-1,-1,-1,-1,-1,-1,-1,-1,-1,-1,-1,-1,-1,-1,-1,-1,-1,-1,-1,-1,-1],"split_conditions":[2.798552E2,3.0656597E-3,2.8416785E2,-1.111787E6,-1.8979188E5,6.77019E-1,1.8410818E7,1.9175838E5,3.0116528E-1,7.2071606E2,9.401235E-1,2.4711563E-1,6.433415E-3,-6.186505E6,-1.3703036E2,3.3467025E-1,-5.087895E2,2.7813116E2,7.549981E-1,2.0050274E7,-1.28093E5,1.02959E5,-2.412839E2,7.2071606E2,6.734653E-1,-3.41404E2,-8.408739E5,-2.3091345E6,1.6733236E7,1.5803525E-1,2.8524734E2,1.6815403E-2,4.8839203E-3,-1.0280434E-2,-6.718039E-2,-2.2315218E-3,-1.2426607E-2,1.7522045E-3,2.7642032E-2,-1.5532061E-3,9.744192E-3,-1.0612867E-2,-5.5043746E-2,5.8753286E-3,-4.0942198E-3,2.2283173E-3,-5.3109606E-3,-2.196013E-2,-5.3744406E-2,-5.670292E-3,-4.0193982E-2,-2.5891727E-3,-8.005661E-3,-6.191028E-3,-1.562517E-2,-3.5426326E-2,2.3669805E-2,-1.6107997E-2,1.5390146E-3,-7.7977204E-3,9.97668E-3,4.6860976E-3,-4.5647796E-2],"split_indices":[4,10,4,6,5,3,7,5,2,0,3,2,10,6,0,8,0,4,8,7,6,6,0,0,3,0,5,5,7,2,4,0,0,0,0,0,0,0,0,0,0,0,0,0,0,0,0,0,0,0,0,0,0,0,0,0,0,0,0,0,0,0,0],"split_type":[0,0,0,0,0,0,0,0,0,0,0,0,0,0,0,0,0,0,0,0,0,0,0,0,0,0,0,0,0,0,0,0,0,0,0,0,0,0,0,0,0,0,0,0,0,0,0,0,0,0,0,0,0,0,0,0,0,0,0,0,0,0,0],"sum_hessian":[6.7909E4,5.8089E4,9.82E3,1.4776E4,4.3313E4,8.734E3,1.086E3,6.17E2,1.4159E4,9.631E3,3.3682E4,9.9E1,8.635E3,8.02E2,2.84E2,6.01E2,1.6E1,1.3874E4,2.85E2,9.012E3,6.19E2,1.5828E4,1.7854E4,5.6E1,4.3E1,6.05E3,2.585E3,1.28E2,6.74E2,2.64E2,2E1,3.5E2,2.51E2,1E1,6E0,1.3229E4,6.45E2,1.32E2,1.53E2,8.149E3,8.63E2,5.84E2,3.5E1,1.4802E4,1.026E3,1.4583E4,3.271E3,1.8E1,3.8E1,3.7E1,6E0,3.748E3,2.302E3,1.737E3,8.48E2,1.23E2,5E0,5.83E2,9.1E1,2.01E2,6.3E1,2E0,1.8E1],"tree_param":{"num_deleted":"0","num_feature":"11","num_nodes":"63","size_leaf_vector":"1"}},{"base_weights":[-3.1076288E-3,1.8549155E-2,-1.3120452E-1,-6.5194895E-3,5.710808E-2,-1.1519435E-1,-2.5973955E-1,-2.614458E-2,3.2651085E-2,1.8358189E-3,9.318579E-2,-5.4815656E-1,-1.10167556E-1,-3.1341133E-1,-1.076056E-1,-1.41253555E-2,-1.3422966E-1,1.906079E-2,2.647231E-1,2.2459057E-1,-1.473534E-2,6.074276E-2,1.5076487E-1,-7.929849E-1,-2.1853442E-1,-2.7776834E-2,-1.3341878E-1,-6.110151E-1,-2.560716E-1,-5.519738E-2,-7.638234E-1,1.7612403E-4,-4.281919E-3,-1.3751291E-3,-9.560127E-3,1.7644571E-3,-4.949494E-3,1.4675996E-2,-6.447857E-3,-1.3532823E-4,2.0191915E-2,5.033181E-4,-7.7922465E-3,3.66871E-3,-6.975329E-3,8.439268E-3,-3.414809E-3,-3.411028E-2,-8.10454E-2,1.3753761E-3,-2.221887E-2,2.7482696E-3,-6.5232664E-3,-1.0561849E-2,-4.5751305E-3,8.445057E-3,-3.389868E-2,-1.5024036E-2,1.430655E-3,-6.67512E-3,9.640764E-3,5.469549E-3,-4.3074902E-2],"categories":[],"categories_nodes":[],"categories_segments":[],"categories_sizes":[],"default_left":[0,0,0,0,0,0,0,0,0,0,0,0,0,0,0,0,0,0,0,0,0,0,0,0,0,0,0,0,0,0,0,0,0,0,0,0,0,0,0,0,0,0,0,0,0,0,0,0,0,0,0,0,0,0,0,0,0,0,0,0,0,0,0],"id":25,"left_children":[1,3,5,7,9,11,13,15,17,19,21,23,25,27,29,31,33,35,37,39,41,43,45,47,49,51,53,55,57,59,61,-1,-1,-1,-1,-1,-1,-1,-1,-1,-1,-1,-1,-1,-1,-1,-1,-1,-1,-1,-1,-1,-1,-1,-1,-1,-1,-1,-1,-1,-1,-1,-1],"loss_changes":[1.8839609E2,5.6151325E1,2.018039E1,2.706309E1,4.5638718E1,1.8950584E1,8.841949E0,3.0467167E1,3.7056747E1,3.33727E1,2.5859459E1,7.8967896E0,1.6540146E1,1.3546349E1,9.759333E0,2.6639652E1,1.4265789E1,2.1272346E1,7.4067345E0,2.5505898E1,2.945203E1,2.2418518E1,1.9709969E1,4.1220627E0,2.4571645E0,1.6167845E1,2.1949173E1,6.8511505E0,